{"learner":{"attributes":{"scikit_learn":"{\"_estimator_type\": \"classifier\"}"},"feature_names":[],"feature_types":[],"gradient_booster":{"model":{"cats":{"enc":[],"feature_segments":[],"sorted_idx":[]},"gbtree_model_param":{"num_parallel_tree":"1","num_trees":"120"},"iteration_indptr":[0,1,2,3,4,5,6,7,8,9,10,11,12,13,14,15,16,17,18,19,20,21,22,23,24,25,26,27,28,29,30,31,32,33,34,35,36,37,38,39,40,41,42,43,44,45,46,47,48,49,50,51,52,53,54,55,56,57,58,59,60,61,62,63,64,65,66,67,68,69,70,71,72,73,74,75,76,77,78,79,80,81,82,83,84,85,86,87,88,89,90,91,92,93,94,95,96,97,98,99,100,101,102,103,104,105,106,107,108,109,110,111,112,113,114,115,116,117,118,119,120],"tree_info":[0,0,0,0,0,0,0,0,0,0,0,0,0,0,0,0,0,0,0,0,0,0,0,0,0,0,0,0,0,0,0,0,0,0,0,0,0,0,0,0,0,0,0,0,0,0,0,0,0,0,0,0,0,0,0,0,0,0,0,0,0,0,0,0,0,0,0,0,0,0,0,0,0,0,0,0,0,0,0,0,0,0,0,0,0,0,0,0,0,0,0,0,0,0,0,0,0,0,0,0,0,0,0,0,0,0,0,0,0,0,0,0,0,0,0,0,0,0,0,0],"trees":[{"base_weights":[-3.5339792E-3,-1.0744278E0,2.4984522E0,-1.3129156E0,8.276077E-1,1.5295287E0,2.836602E0,-1.4814354E0,-8.8649404E-1,2.2031325E-1,1.3368893E0,8.062124E-1,2.3436718E0,2.4138105E0,2.3531534E-1,-1.1998812E-1,-1.268914E0,-1.0683352E0,-5.9601074E-1,-6.435731E-2,3.9622056E-1,1.1425813E0,1.5135641E-1,6.6254956E-1,1.9796506E0,1.6482911E0,2.403141E0,1.9229345E0,2.2096315E-1,-1.0164497E-1,-2.5273986E-2,-9.025933E-1,-1.1023498E0,-7.2827685E-1,-1.9336027E-1,3.4482077E-1,-1.7804615E-1,6.4284104E-1,3.0700177E-1,1.2651982E0,8.877716E-1,4.591748E-1,1.1507967E0,1.5942574E0,1.9559984E-1,3.4270696E-2,1.3439322E-1,1.8178757E-1,2.0673397E-1,1.6345031E0,1.9189747E-1,-3.6498092E-2,-7.410019E-2,-8.980665E-2,-7.900841E-2,-6.113104E-2,-3.553502E-2,-2.431769E-2,6.996833E-3,4.9922727E-2,-3.2001445E-3,-5.229361E-2,-1.0707457E-2,7.7809855E-2,4.527257E-2,4.1944757E-2,1.5453254E-2,7.86899E-2,1.08651124E-1,5.17212E-2,8.8638924E-2,1.9988263E-2,5.4540377E-2,9.498938E-2,4.8788055E-3,6.979335E-2,1.354947E-1,1.3406557E-1,5.214957E-2],"categories":[],"categories_nodes":[],"categories_segments":[],"categories_sizes":[],"default_left":[0,0,0,0,0,0,0,0,0,0,0,0,0,0,0,0,0,0,0,0,0,0,0,0,0,0,0,0,0,0,0,0,0,0,0,0,0,0,0,0,0,0,0,0,0,0,0,0,0,0,0,0,0,0,0,0,0,0,0,0,0,0,0,0,0,0,0,0,0,0,0,0,0,0,0,0,0,0,0],"id":0,"left_children":[1,3,5,7,9,11,13,15,17,19,21,23,25,27,-1,-1,29,31,33,35,37,39,-1,41,43,45,47,49,-1,-1,-1,51,53,55,57,59,61,63,65,67,69,71,73,75,-1,-1,-1,-1,-1,77,-1,-1,-1,-1,-1,-1,-1,-1,-1,-1,-1,-1,-1,-1,-1,-1,-1,-1,-1,-1,-1,-1,-1,-1,-1,-1,-1,-1,-1],"loss_changes":[3.3564312E4,3.9803008E3,1.2258535E3,5.588613E2,3.0217963E2,5.7141016E2,1.162207E2,1.9957031E1,1.16128296E2,2.2422575E1,5.5186035E1,8.5852264E1,1.4958008E1,9.0137695E1,0E0,0E0,3.0841064E-1,6.6623535E0,4.530359E1,8.047914E0,5.8883324E0,1.1261047E1,0E0,4.5362274E1,6.1262054E0,7.936249E-1,4.055176E0,2.8331726E1,0E0,0E0,0E0,2.078186E0,1.4973145E0,6.200653E0,6.6226735E0,4.0725336E0,2.7510185E0,1.2906017E0,4.9703827E0,5.60553E0,6.303177E0,1.5107719E1,5.3174133E0,9.229355E-1,0E0,0E0,0E0,0E0,0E0,4.975403E0,0E0,0E0,0E0,0E0,0E0,0E0,0E0,0E0,0E0,0E0,0E0,0E0,0E0,0E0,0E0,0E0,0E0,0E0,0E0,0E0,0E0,0E0,0E0,0E0,0E0,0E0,0E0,0E0,0E0],"parents":[2147483647,0,0,1,1,2,2,3,3,4,4,5,5,6,6,7,7,8,8,9,9,10,10,11,11,12,12,13,13,16,16,17,17,18,18,19,19,20,20,21,21,23,23,24,24,25,25,26,26,27,27,31,31,32,32,33,33,34,34,35,35,36,36,37,37,38,38,39,39,40,40,41,41,42,42,43,43,49,49],"right_children":[2,4,6,8,10,12,14,16,18,20,22,24,26,28,-1,-1,30,32,34,36,38,40,-1,42,44,46,48,50,-1,-1,-1,52,54,56,58,60,62,64,66,68,70,72,74,76,-1,-1,-1,-1,-1,78,-1,-1,-1,-1,-1,-1,-1,-1,-1,-1,-1,-1,-1,-1,-1,-1,-1,-1,-1,-1,-1,-1,-1,-1,-1,-1,-1,-1,-1],"split_conditions":[2.58065E-1,1E0,4.07407E-1,8E-2,1.36364E-1,1E0,5.2E-1,3.5714E-2,1.66667E-1,9.0909E-2,2.27273E-1,5E0,2.77778E-1,1E0,2.3531534E-1,-1.1998812E-1,2.6E1,7E0,2.27273E-1,4.3E0,8E0,9E0,1.5135641E-1,3.47826E-1,3.68421E-1,2.5E1,3.47826E-1,5E0,2.2096315E-1,-1.0164497E-1,-2.5273986E-2,6E0,1.6E2,3E0,8E0,8E1,2.8E1,2.5E1,4.5E0,1.57895E-1,1.73913E-1,3E0,5.25E2,2.85714E-1,1.9559984E-1,3.4270696E-2,1.3439322E-1,1.8178757E-1,2.0673397E-1,3.7E2,1.9189747E-1,-3.6498092E-2,-7.410019E-2,-8.980665E-2,-7.900841E-2,-6.113104E-2,-3.553502E-2,-2.431769E-2,6.996833E-3,4.9922727E-2,-3.2001445E-3,-5.229361E-2,-1.0707457E-2,7.7809855E-2,4.527257E-2,4.1944757E-2,1.5453254E-2,7.86899E-2,1.08651124E-1,5.17212E-2,8.8638924E-2,1.9988263E-2,5.4540377E-2,9.498938E-2,4.8788055E-3,6.979335E-2,1.354947E-1,1.3406557E-1,5.214957E-2],"split_indices":[2,4,2,2,2,4,2,2,2,2,2,1,2,4,0,0,3,3,2,11,3,3,0,2,2,10,2,1,0,0,0,3,10,1,3,10,10,10,11,2,2,1,10,2,0,0,0,0,0,10,0,0,0,0,0,0,0,0,0,0,0,0,0,0,0,0,0,0,0,0,0,0,0,0,0,0,0,0,0],"split_type":[0,0,0,0,0,0,0,0,0,0,0,0,0,0,0,0,0,0,0,0,0,0,0,0,0,0,0,0,0,0,0,0,0,0,0,0,0,0,0,0,0,0,0,0,0,0,0,0,0,0,0,0,0,0,0,0,0,0,0,0,0,0,0,0,0,0,0,0,0,0,0,0,0,0,0,0,0,0,0],"sum_hessian":[1.2524978E4,8.771285E3,3.753693E3,7.7943022E3,9.769825E2,9.7253766E2,2.7811553E3,5.5847573E3,2.2095452E3,4.4626498E2,5.307175E2,5.1604944E2,4.564882E2,5.573867E2,2.2237686E3,5.133825E3,4.509321E2,1.3572412E3,8.523039E2,1.7068301E2,2.7558197E2,3.9537122E2,1.353463E2,4.611553E2,5.489415E1,3.8225883E1,4.182623E2,2.3402243E2,3.2336432E2,4.498209E2,1.1112176E0,2.3580037E2,1.1214408E3,6.409503E2,2.1135359E2,3.667018E1,1.3401285E2,7.1562416E1,2.0401955E2,2.6424753E2,1.3112367E2,3.2692023E2,1.3423509E2,3.244755E1,2.2446596E1,1.333461E0,3.6892426E1,2.5069069E2,1.6757161E2,1.4845866E2,8.556375E1,1.2890124E1,2.2291025E2,9.458684E2,1.7557237E2,5.676099E2,7.334036E1,1.5157008E2,5.9783504E1,2.089089E1,1.577929E1,1.0223202E1,1.2378964E2,1.1334419E1,6.0227993E1,6.889549E1,1.3512405E2,6.8451004E1,1.9579654E2,6.445062E1,6.667306E1,1.6957181E2,1.573484E2,1.297902E2,4.4448705E0,5.111601E0,2.7335953E1,1.4179137E2,6.6673055E0],"tree_param":{"num_deleted":"0","num_feature":"13","num_nodes":"79","size_leaf_vector":"1"}},{"base_weights":[-3.488007E-3,-1.089118E0,2.0354488E0,-1.2848E0,5.8627486E-1,1.1431952E0,2.4463937E0,-1.4181163E0,-8.811916E-1,1.9954707E-1,1.0033442E0,4.5740685E-1,1.9493415E0,2.117916E0,2.5273778E0,-1.1538907E-1,-1.1931063E0,-9.859284E-1,-6.8677866E-1,3.6794522E-1,-7.69337E-2,7.223961E-1,1.1049415E0,-8.545438E-3,8.5316217E-1,1.6172634E0,2.0851943E0,1.7029448E0,1.9194037E-1,2.4034073E0,2.0425949E-1,-8.1547296E-1,-9.602626E-2,-1.0827045E0,-9.4012606E-1,-7.223869E-1,-4.0387535E-1,6.1942375E-1,2.711418E-1,2.1354145E-1,-1.5020247E-1,-1.3248804E-1,7.8902465E-1,1.2370096E0,9.7007734E-1,-1.4522067E-1,2.088692E-1,7.1193016E-1,1.7360976E0,9.90105E-1,1.6334386E0,1.3843995E0,2.103007E0,1.2915169E0,1.9905077E0,1.795534E-1,2.0126796E-1,-7.5460516E-2,-1.6447308E-2,-6.890093E-2,-8.8063136E-2,-7.834635E-2,-6.963038E-2,-6.150679E-2,-4.2133994E-2,-4.6438478E-2,-3.5810582E-3,5.262052E-2,-3.514792E-2,4.593405E-2,1.4418139E-2,-1.9828267E-2,2.9157242E-2,-2.3737375E-2,-1.3069194E-3,6.0834482E-2,-5.1618274E-2,7.221298E-2,2.8288435E-2,9.5374756E-2,1.4104441E-1,4.283019E-2,8.501118E-2,-2.012833E-2,7.2102146E-3,1.2113998E-2,1.5433094E-1,6.047744E-3,6.2456563E-2,1.14089705E-1,1.642044E-1,-3.104279E-2,1.0537766E-1,1.4663921E-1,1.2363957E-1,4.1775554E-3,1.2024877E-1,1.6071124E-1,1.7845556E-1,1.0659821E-1,3.225844E-2,1.3841872E-1,1.7653476E-1],"categories":[],"categories_nodes":[],"categories_segments":[],"categories_sizes":[],"default_left":[0,0,0,0,0,0,0,0,0,0,0,0,0,0,0,0,0,0,0,0,0,0,0,0,0,0,0,0,0,0,0,0,0,0,0,0,0,0,0,0,0,0,0,0,0,0,0,0,0,0,0,0,0,0,0,0,0,0,0,0,0,0,0,0,0,0,0,0,0,0,0,0,0,0,0,0,0,0,0,0,0,0,0,0,0,0,0,0,0,0,0,0,0,0,0,0,0,0,0,0,0,0,0],"id":1,"left_children":[1,3,5,7,9,11,13,15,17,19,21,23,25,27,29,-1,31,33,35,37,39,41,43,45,47,49,51,53,-1,55,-1,57,-1,59,61,63,65,67,69,71,73,75,77,79,81,83,85,87,89,91,93,95,97,99,101,-1,-1,-1,-1,-1,-1,-1,-1,-1,-1,-1,-1,-1,-1,-1,-1,-1,-1,-1,-1,-1,-1,-1,-1,-1,-1,-1,-1,-1,-1,-1,-1,-1,-1,-1,-1,-1,-1,-1,-1,-1,-1,-1,-1,-1,-1,-1,-1],"loss_changes":[2.7649764E4,2.6730654E3,1.5885684E3,3.914922E2,1.3740744E2,7.567612E2,7.366992E1,2.8205078E1,3.627942E1,2.0697132E1,1.0911163E1,1.3680037E2,2.5032959E1,6.522803E1,1.4892578E0,0E0,4.9206543E-1,4.2001953E0,6.1427E0,6.552536E0,3.6260023E0,6.474777E0,4.132538E0,1.01835E1,4.878476E1,2.8234863E-1,2.623413E0,2.6217773E1,0E0,1.996582E0,0E0,8.379202E-1,0E0,5.39978E-1,1.3532104E0,4.7408447E0,4.646661E0,3.3715534E0,5.4372053E0,2.4877117E0,2.6515489E0,4.5848393E0,4.8215485E0,1.3792114E0,5.5777283E0,5.2901573E0,1.2781327E1,1.5149826E1,2.4307861E0,3.7782536E0,3.4375E-1,2.1223965E0,6.9189453E-1,3.2086334E0,4.1364746E0,0E0,0E0,0E0,0E0,0E0,0E0,0E0,0E0,0E0,0E0,0E0,0E0,0E0,0E0,0E0,0E0,0E0,0E0,0E0,0E0,0E0,0E0,0E0,0E0,0E0,0E0,0E0,0E0,0E0,0E0,0E0,0E0,0E0,0E0,0E0,0E0,0E0,0E0,0E0,0E0,0E0,0E0,0E0,0E0,0E0,0E0,0E0,0E0],"parents":[2147483647,0,0,1,1,2,2,3,3,4,4,5,5,6,6,7,7,8,8,9,9,10,10,11,11,12,12,13,13,14,14,16,16,17,17,18,18,19,19,20,20,21,21,22,22,23,23,24,24,25,25,26,26,27,27,29,29,31,31,33,33,34,34,35,35,36,36,37,37,38,38,39,39,40,40,41,41,42,42,43,43,44,44,45,45,46,46,47,47,48,48,49,49,50,50,51,51,52,52,53,53,54,54],"right_children":[2,4,6,8,10,12,14,16,18,20,22,24,26,28,30,-1,32,34,36,38,40,42,44,46,48,50,52,54,-1,56,-1,58,-1,60,62,64,66,68,70,72,74,76,78,80,82,84,86,88,90,92,94,96,98,100,102,-1,-1,-1,-1,-1,-1,-1,-1,-1,-1,-1,-1,-1,-1,-1,-1,-1,-1,-1,-1,-1,-1,-1,-1,-1,-1,-1,-1,-1,-1,-1,-1,-1,-1,-1,-1,-1,-1,-1,-1,-1,-1,-1,-1,-1,-1,-1,-1],"split_conditions":[2.27273E-1,1E0,4.07407E-1,9.0909E-2,1.36364E-1,1E0,5.2E-1,5.2632E-2,1.66667E-1,1.3E1,1.6E-1,2.91667E-1,2.77778E-1,1E0,5E0,-1.1538907E-1,1.5E1,1.11111E-1,1.3E1,4.4E0,4.3E0,4E0,1E1,2.6087E-1,5E0,5E0,5E0,8E0,1.9194037E-1,1E0,2.0425949E-1,1.6E1,-9.602626E-2,2.5E1,7.5E-1,1.2E2,2.10526E-1,5.25E2,9E0,1.7E0,8E1,1E0,1.4E1,3.85E2,1.73913E-1,9E0,1.9E1,4E0,3.68421E-1,4.1E0,4.4E0,4E0,3.52941E-1,3.7E2,1.1E1,1.795534E-1,2.0126796E-1,-7.5460516E-2,-1.6447308E-2,-6.890093E-2,-8.8063136E-2,-7.834635E-2,-6.963038E-2,-6.150679E-2,-4.2133994E-2,-4.6438478E-2,-3.5810582E-3,5.262052E-2,-3.514792E-2,4.593405E-2,1.4418139E-2,-1.9828267E-2,2.9157242E-2,-2.3737375E-2,-1.3069194E-3,6.0834482E-2,-5.1618274E-2,7.221298E-2,2.8288435E-2,9.5374756E-2,1.4104441E-1,4.283019E-2,8.501118E-2,-2.012833E-2,7.2102146E-3,1.2113998E-2,1.5433094E-1,6.047744E-3,6.2456563E-2,1.14089705E-1,1.642044E-1,-3.104279E-2,1.0537766E-1,1.4663921E-1,1.2363957E-1,4.1775554E-3,1.2024877E-1,1.6071124E-1,1.7845556E-1,1.0659821E-1,3.225844E-2,1.3841872E-1,1.7653476E-1],"split_indices":[2,4,2,2,2,4,2,2,2,0,2,2,2,4,1,0,10,2,0,11,11,11,0,2,1,10,10,0,0,4,0,0,0,10,8,10,2,10,0,11,10,11,0,10,2,0,0,0,2,11,11,11,2,10,0,0,0,0,0,0,0,0,0,0,0,0,0,0,0,0,0,0,0,0,0,0,0,0,0,0,0,0,0,0,0,0,0,0,0,0,0,0,0,0,0,0,0,0,0,0,0,0,0],"split_type":[0,0,0,0,0,0,0,0,0,0,0,0,0,0,0,0,0,0,0,0,0,0,0,0,0,0,0,0,0,0,0,0,0,0,0,0,0,0,0,0,0,0,0,0,0,0,0,0,0,0,0,0,0,0,0,0,0,0,0,0,0,0,0,0,0,0,0,0,0,0,0,0,0,0,0,0,0,0,0,0,0,0,0,0,0,0,0,0,0,0,0,0,0,0,0,0,0,0,0,0,0,0,0],"sum_hessian":[1.2489246E4,8.1501646E3,4.339082E3,7.2980073E3,8.52157E2,1.3694594E3,2.9696226E3,5.4840513E3,1.8139562E3,4.4292914E2,4.092278E2,7.408154E2,6.2864386E2,5.9270776E2,2.3769148E3,4.9456934E3,5.383577E2,1.1762172E3,6.37739E2,2.7506345E2,1.678657E2,1.10837654E2,2.9839017E2,3.406827E2,4.0013275E2,1.8625864E2,4.4238525E2,2.4232864E2,3.5037915E2,4.2653442E2,1.9503802E3,1.2240196E1,5.2611755E2,3.7057935E2,8.056378E2,5.650626E2,7.26764E1,7.4952095E1,2.0011134E2,3.342748E1,1.3443823E2,7.9424825E0,1.0289517E2,1.4662898E2,1.5176118E2,2.0938638E2,1.3129631E2,3.4651196E2,5.3620804E1,6.2472115E0,1.8001141E2,1.2917046E1,4.294682E2,1.0195243E2,1.403762E2,1.853775E2,2.411569E2,9.667932E0,2.5722647E0,3.1650461E1,3.389289E2,5.073966E2,2.982412E2,4.5431296E2,1.10749664E2,4.8304558E1,2.4371845E1,7.26988E1,2.2533E0,4.4954742E1,1.551566E2,8.080893E0,2.5346586E1,6.3605854E1,7.0832375E1,2.7209585E0,5.2215242E0,8.074809E1,2.2147083E1,1.3812543E2,8.503562E0,2.783306E1,1.2392812E2,1.441554E2,6.5230995E1,1.2810652E2,3.1897871E0,3.4003727E1,3.1250824E2,2.9869535E1,2.3751266E1,1.162666E0,5.0845456E0,4.8995068E1,1.3101634E2,1.1746676E0,1.1742378E1,2.5686777E2,1.7260043E2,9.698039E1,4.972037E0,6.77772E1,7.2599014E1],"tree_param":{"num_deleted":"0","num_feature":"13","num_nodes":"103","size_leaf_vector":"1"}},{"base_weights":[-7.7753994E-3,-8.8205034E-1,1.9124489E0,-1.1575265E0,8.9388365E-1,1.1627136E0,2.118164E0,-1.11596175E-1,-7.3838294E-1,1.4821672E0,3.9028057E-1,1.5836737E0,3.4618428E-1,2.2007983E0,1.6463437E0,-1.06977485E-1,-9.320304E-1,1.2083486E0,1.7653134E0,5.4312515E-1,-3.8824763E-2,1.1244534E0,1.983E0,-2.2989625E-1,1.1012077E0,1.9842352E0,1.7957754E-1,1.2119663E0,1.9890293E0,-5.070439E-1,5.6755465E-1,-1.0233079E0,-6.8059415E-1,1.6139972E0,1.0175289E0,1.792808E0,5.1047903E-1,3.456291E-1,8.831042E-1,1.5620879E-3,-7.496158E-1,1.7714734E0,7.395383E-1,1.7706504E-1,1.7979956E0,2.5254935E-2,-6.7925006E-1,1.2429473E0,5.252464E-1,2.1077676E0,1.6198591E0,8.231592E-1,1.9443834E0,2.0240967E0,9.338575E-1,2.846861E-2,-5.038235E-2,1.1450346E-1,2.7607553E-2,-7.1952015E-2,-8.837809E-2,-1.0317185E-2,-6.138882E-2,1.407425E-1,9.551792E-2,8.983041E-2,6.852414E-2,1.5925623E-1,1.3161339E-1,7.644675E-2,5.4667965E-3,5.5737413E-2,2.0419188E-2,7.665123E-2,2.076315E-2,-6.887268E-3,1.3512375E-2,-3.0724596E-2,-8.87064E-2,1.6713667E-1,1.2712458E-1,5.2523006E-2,7.85361E-2,4.6023134E-2,1.4631216E-1,1.7006995E-2,-1.9222373E-2,-6.517202E-2,-2.9807461E-2,1.0953418E-1,8.50339E-2,-9.206672E-4,6.733596E-2,1.7749761E-1,1.5669322E-1,9.542268E-2,1.5530263E-1,8.83561E-2,4.362793E-3,1.5806212E-1,4.4015152E-3,1.4856377E-1,1.7736652E-1,4.3299925E-3,1.04597725E-1],"categories":[],"categories_nodes":[],"categories_segments":[],"categories_sizes":[],"default_left":[0,0,0,0,0,0,0,0,0,0,0,0,0,0,0,0,0,0,0,0,0,0,0,0,0,0,0,0,0,0,0,0,0,0,0,0,0,0,0,0,0,0,0,0,0,0,0,0,0,0,0,0,0,0,0,0,0,0,0,0,0,0,0,0,0,0,0,0,0,0,0,0,0,0,0,0,0,0,0,0,0,0,0,0,0,0,0,0,0,0,0,0,0,0,0,0,0,0,0,0,0,0,0,0,0],"id":2,"left_children":[1,3,5,7,9,11,13,-1,15,17,19,21,23,25,27,29,31,33,35,37,39,41,43,45,47,49,-1,51,53,55,57,59,61,63,65,67,69,71,73,75,77,79,81,-1,83,85,87,89,91,93,95,97,99,101,103,-1,-1,-1,-1,-1,-1,-1,-1,-1,-1,-1,-1,-1,-1,-1,-1,-1,-1,-1,-1,-1,-1,-1,-1,-1,-1,-1,-1,-1,-1,-1,-1,-1,-1,-1,-1,-1,-1,-1,-1,-1,-1,-1,-1,-1,-1,-1,-1,-1,-1],"loss_changes":[2.0715773E4,4.1492344E3,5.929512E2,7.29501E2,3.3691895E2,2.859176E2,1.144375E2,0E0,3.2473596E2,3.8575317E1,4.0364998E1,9.856055E1,1.24121254E2,2.0027344E1,6.53584E1,1.6886325E2,4.5962524E1,1.9264832E1,7.9159546E0,3.0153854E1,4.665745E0,6.2932404E1,8.491089E0,1.86324E1,9.422943E0,1.6508057E1,0E0,5.630255E1,7.468933E0,4.180867E1,4.428363E1,1.4033569E1,2.5960205E1,3.0682373E0,2.199295E0,4.031616E0,1.2899257E0,8.980434E0,7.520569E0,2.2844677E0,7.216139E-1,2.215332E0,2.6408157E0,0E0,5.282593E0,5.2503943E0,2.1395168E0,7.788391E-1,4.4441204E0,1.0675049E0,1.3660339E1,2.9032227E1,4.029846E0,3.7470093E0,3.2134714E0,0E0,0E0,0E0,0E0,0E0,0E0,0E0,0E0,0E0,0E0,0E0,0E0,0E0,0E0,0E0,0E0,0E0,0E0,0E0,0E0,0E0,0E0,0E0,0E0,0E0,0E0,0E0,0E0,0E0,0E0,0E0,0E0,0E0,0E0,0E0,0E0,0E0,0E0,0E0,0E0,0E0,0E0,0E0,0E0,0E0,0E0,0E0,0E0,0E0,0E0],"parents":[2147483647,0,0,1,1,2,2,3,3,4,4,5,5,6,6,8,8,9,9,10,10,11,11,12,12,13,13,14,14,15,15,16,16,17,17,18,18,19,19,20,20,21,21,22,22,23,23,24,24,25,25,27,27,28,28,29,29,30,30,31,31,32,32,33,33,34,34,35,35,36,36,37,37,38,38,39,39,40,40,41,41,42,42,44,44,45,45,46,46,47,47,48,48,49,49,50,50,51,51,52,52,53,53,54,54],"right_children":[2,4,6,8,10,12,14,-1,16,18,20,22,24,26,28,30,32,34,36,38,40,42,44,46,48,50,-1,52,54,56,58,60,62,64,66,68,70,72,74,76,78,80,82,-1,84,86,88,90,92,94,96,98,100,102,104,-1,-1,-1,-1,-1,-1,-1,-1,-1,-1,-1,-1,-1,-1,-1,-1,-1,-1,-1,-1,-1,-1,-1,-1,-1,-1,-1,-1,-1,-1,-1,-1,-1,-1,-1,-1,-1,-1,-1,-1,-1,-1,-1,-1,-1,-1,-1,-1,-1,-1],"split_conditions":[3E0,1E0,4E0,1E0,7E0,1.1E1,7E0,-1.11596175E-1,6E0,2E0,1.2E1,1E0,1E0,5E0,1E0,2E0,2E0,4E0,9E0,2E0,2E1,7E0,4E0,1.5E1,1.6E1,5E0,1.7957754E-1,6E0,1.5E1,4E0,3E0,1E1,9E0,5.8E1,7E0,4E0,4.6E0,9E0,2.15E2,1.05E2,1.65E2,5E0,1E2,1.7706504E-1,5E0,8E1,7.5E-1,7.5E1,8E1,3E0,1E0,1.1E1,1.6E1,6E0,5E0,2.846861E-2,-5.038235E-2,1.1450346E-1,2.7607553E-2,-7.1952015E-2,-8.837809E-2,-1.0317185E-2,-6.138882E-2,1.407425E-1,9.551792E-2,8.983041E-2,6.852414E-2,1.5925623E-1,1.3161339E-1,7.644675E-2,5.4667965E-3,5.5737413E-2,2.0419188E-2,7.665123E-2,2.076315E-2,-6.887268E-3,1.3512375E-2,-3.0724596E-2,-8.87064E-2,1.6713667E-1,1.2712458E-1,5.2523006E-2,7.85361E-2,4.6023134E-2,1.4631216E-1,1.7006995E-2,-1.9222373E-2,-6.517202E-2,-2.9807461E-2,1.0953418E-1,8.50339E-2,-9.206672E-4,6.733596E-2,1.7749761E-1,1.5669322E-1,9.542268E-2,1.5530263E-1,8.83561E-2,4.362793E-3,1.5806212E-1,4.4015152E-3,1.4856377E-1,1.7736652E-1,4.3299925E-3,1.04597725E-1],"split_indices":[1,4,1,1,3,0,3,0,3,1,3,4,4,1,4,1,1,3,0,1,3,0,3,0,0,3,0,1,3,0,3,0,0,10,0,3,11,0,10,10,10,0,10,0,10,10,8,10,10,3,4,3,3,1,1,0,0,0,0,0,0,0,0,0,0,0,0,0,0,0,0,0,0,0,0,0,0,0,0,0,0,0,0,0,0,0,0,0,0,0,0,0,0,0,0,0,0,0,0,0,0,0,0,0,0],"split_type":[0,0,0,0,0,0,0,0,0,0,0,0,0,0,0,0,0,0,0,0,0,0,0,0,0,0,0,0,0,0,0,0,0,0,0,0,0,0,0,0,0,0,0,0,0,0,0,0,0,0,0,0,0,0,0,0,0,0,0,0,0,0,0,0,0,0,0,0,0,0,0,0,0,0,0,0,0,0,0,0,0,0,0,0,0,0,0,0,0,0,0,0,0,0,0,0,0,0,0,0,0,0,0,0,0],"sum_hessian":[1.2337598E4,8.478082E3,3.859516E3,7.3398936E3,1.138188E3,8.324131E2,3.027103E3,4.684187E3,2.6557065E3,5.2406213E2,6.141259E2,5.4862897E2,2.8378412E2,2.5728342E3,4.542687E2,6.236829E2,2.0320237E3,2.690972E2,2.5496492E2,4.5263464E2,1.6149127E2,2.5695255E2,2.9167642E2,1.6136139E2,1.2242272E2,4.415992E2,2.131235E3,2.0233362E2,2.5193507E2,3.9164548E2,2.3203746E2,1.4885673E3,5.4345636E2,8.370248E1,1.8539471E2,2.4907863E2,5.8862853E0,2.8758896E2,1.6504568E2,1.537529E2,7.7383738E0,9.4500465E1,1.6245207E2,1.2504437E2,1.6663205E2,1.0352297E2,5.7838413E1,9.731597E1,2.510675E1,3.262185E2,1.1538071E2,1.3355777E2,6.877585E1,2.4294289E2,8.992189E0,4.853275E1,3.4311273E2,4.6409805E1,1.8562766E2,5.950404E2,8.9352686E2,7.4200584E1,4.6925577E2,5.982185E1,2.3880629E1,1.08446556E2,7.694815E1,1.01092606E2,1.4798602E2,2.3546321E0,3.531653E0,5.7508266E1,2.300807E2,1.4683934E2,1.8206345E1,1.0122005E2,5.2532845E1,4.860843E0,2.8775308E0,3.065395E1,6.3846516E1,1.2374867E2,3.8703392E1,4.591695E0,1.6204036E2,6.0816692E1,4.2706284E1,3.897359E1,1.8864822E1,5.332188E1,4.399409E1,9.669456E0,1.5437295E1,1.790786E2,1.4713991E2,5.1570255E1,6.3810448E1,9.745531E1,3.6102463E1,6.760679E1,1.1690643E0,1.359157E2,1.0702719E2,3.0217881E0,5.970402E0],"tree_param":{"num_deleted":"0","num_feature":"13","num_nodes":"105","size_leaf_vector":"1"}},{"base_weights":[-8.286469E-3,-9.958568E-1,1.6452793E0,-1.1900775E0,4.9228767E-1,8.542206E-1,1.9360276E0,-1.339298E0,-8.251631E-1,1.9799182E-1,8.0518305E-1,2.9967242E-1,1.5071155E0,1.6432617E0,2.0315087E0,-1.08256966E-1,-1.1303201E0,-9.187892E-1,-6.141708E-1,3.979471E-1,-2.7024928E-2,9.009516E-1,5.9914136E-1,-1.1200866E-1,5.5426896E-1,1.2689906E0,1.6325402E0,1.3261678E0,1.4999665E-1,1.9525208E0,1.652316E-1,-8.6232656E-1,-1.1471426E0,-9.885301E-1,-8.187498E-1,-6.516486E-1,-3.2511187E-1,6.1074555E-1,3.1946898E-1,2.233003E-1,-1.5569045E-1,7.00479E-1,1.0122311E0,5.634814E-1,1.3306123E0,-1.5076658E-1,5.282645E-1,2.071187E-1,8.0883175E-1,1.4187714E0,1.1967285E0,1.5770594E0,1.4498122E-1,1.1278639E0,1.3580152E-1,1.752475E0,1.5835862E-1,1.1942346E-2,-7.4261375E-2,-3.0207442E-2,-9.196701E-2,-6.0704783E-2,-8.0206275E-2,-2.4394156E-2,-6.6413924E-2,4.8313998E-2,-5.253944E-2,-3.7633214E-2,-3.514811E-3,3.4686353E-2,9.759491E-2,3.2076757E-2,9.607082E-3,-2.885609E-3,5.148052E-2,-5.7295025E-3,-2.7212735E-2,5.031767E-2,1.1839201E-1,8.425819E-2,5.9609856E-2,2.2062378E-2,4.8834946E-2,4.604902E-2,1.2839659E-1,2.4160683E-2,-1.7088415E-2,1.0202133E-1,9.244974E-3,1.3296719E-2,4.3378275E-2,5.850584E-2,1.15978874E-1,1.2004831E-1,7.7936254E-2,1.01003975E-1,7.950054E-2,1.2127834E-1,1.3959904E-1,7.052287E-2,9.967021E-2,1.1743679E-1,1.5670599E-1],"categories":[],"categories_nodes":[],"categories_segments":[],"categories_sizes":[],"default_left":[0,0,0,0,0,0,0,0,0,0,0,0,0,0,0,0,0,0,0,0,0,0,0,0,0,0,0,0,0,0,0,0,0,0,0,0,0,0,0,0,0,0,0,0,0,0,0,0,0,0,0,0,0,0,0,0,0,0,0,0,0,0,0,0,0,0,0,0,0,0,0,0,0,0,0,0,0,0,0,0,0,0,0,0,0,0,0,0,0,0,0,0,0,0,0,0,0,0,0,0,0,0,0],"id":3,"left_children":[1,3,5,7,9,11,13,15,17,19,21,23,25,27,29,-1,31,33,35,37,39,41,43,45,47,49,51,53,-1,55,-1,57,59,61,63,65,67,69,71,73,75,77,79,81,83,85,87,89,91,93,95,97,-1,99,-1,101,-1,-1,-1,-1,-1,-1,-1,-1,-1,-1,-1,-1,-1,-1,-1,-1,-1,-1,-1,-1,-1,-1,-1,-1,-1,-1,-1,-1,-1,-1,-1,-1,-1,-1,-1,-1,-1,-1,-1,-1,-1,-1,-1,-1,-1,-1,-1],"loss_changes":[1.9805115E4,2.1952031E3,1.0413623E3,3.646416E2,8.062489E1,4.414773E2,8.9336914E1,1.2328125E1,3.799756E1,2.041109E1,7.844116E0,6.9369644E1,1.466394E1,5.7799072E1,2.647461E0,0E0,3.7942505E-1,8.609863E0,6.320526E0,3.815178E0,6.9360666E0,5.717499E0,2.8448029E0,6.370617E0,3.595382E1,4.4308472E-1,7.668457E-1,2.3848572E1,0E0,6.7089844E-1,0E0,1.6033115E0,9.7717285E-2,1.7907715E0,3.036377E0,3.8045807E0,2.8884058E0,6.3355923E0,2.8363533E0,7.996293E0,2.1796656E0,4.981285E0,1.2191772E0,1.6301956E0,2.5088215E-1,6.887707E0,4.38197E0,2.2989726E0,1.06371765E1,6.8400574E-1,6.133423E-1,2.8295898E-1,0E0,5.618164E0,0E0,2.988556E0,0E0,0E0,0E0,0E0,0E0,0E0,0E0,0E0,0E0,0E0,0E0,0E0,0E0,0E0,0E0,0E0,0E0,0E0,0E0,0E0,0E0,0E0,0E0,0E0,0E0,0E0,0E0,0E0,0E0,0E0,0E0,0E0,0E0,0E0,0E0,0E0,0E0,0E0,0E0,0E0,0E0,0E0,0E0,0E0,0E0,0E0,0E0],"parents":[2147483647,0,0,1,1,2,2,3,3,4,4,5,5,6,6,7,7,8,8,9,9,10,10,11,11,12,12,13,13,14,14,16,16,17,17,18,18,19,19,20,20,21,21,22,22,23,23,24,24,25,25,26,26,27,27,29,29,31,31,32,32,33,33,34,34,35,35,36,36,37,37,38,38,39,39,40,40,41,41,42,42,43,43,44,44,45,45,46,46,47,47,48,48,49,49,50,50,51,51,53,53,55,55],"right_children":[2,4,6,8,10,12,14,16,18,20,22,24,26,28,30,-1,32,34,36,38,40,42,44,46,48,50,52,54,-1,56,-1,58,60,62,64,66,68,70,72,74,76,78,80,82,84,86,88,90,92,94,96,98,-1,100,-1,102,-1,-1,-1,-1,-1,-1,-1,-1,-1,-1,-1,-1,-1,-1,-1,-1,-1,-1,-1,-1,-1,-1,-1,-1,-1,-1,-1,-1,-1,-1,-1,-1,-1,-1,-1,-1,-1,-1,-1,-1,-1,-1,-1,-1,-1,-1,-1],"split_conditions":[2.27273E-1,1E0,3.80952E-1,7.4074E-2,1.36364E-1,1E0,5.2E-1,3.5714E-2,1.66667E-1,1.2E1,9E0,2.85714E-1,2.77778E-1,1E0,6.81818E-1,-1.08256966E-1,3.5E1,1.15385E-1,1.3E1,9E0,4.5E0,4.5E0,5.85E2,1.7E1,8E0,3.8E1,8E0,5E0,1.4999665E-1,6E0,1.652316E-1,3.8E0,3.8462E-2,2E1,6E0,4E0,2.10526E-1,1.05E2,8.5E1,7.5E-1,1.2E2,3.15E2,1.55E2,1.53846E-1,1.73913E-1,2E1,4.6E0,4.9E0,1.6E1,4.8E0,1.3E1,3.47826E-1,1.4498122E-1,6E0,1.3580152E-1,1E0,1.5835862E-1,1.1942346E-2,-7.4261375E-2,-3.0207442E-2,-9.196701E-2,-6.0704783E-2,-8.0206275E-2,-2.4394156E-2,-6.6413924E-2,4.8313998E-2,-5.253944E-2,-3.7633214E-2,-3.514811E-3,3.4686353E-2,9.759491E-2,3.2076757E-2,9.607082E-3,-2.885609E-3,5.148052E-2,-5.7295025E-3,-2.7212735E-2,5.031767E-2,1.1839201E-1,8.425819E-2,5.9609856E-2,2.2062378E-2,4.8834946E-2,4.604902E-2,1.2839659E-1,2.4160683E-2,-1.7088415E-2,1.0202133E-1,9.244974E-3,1.3296719E-2,4.3378275E-2,5.850584E-2,1.15978874E-1,1.2004831E-1,7.7936254E-2,1.01003975E-1,7.950054E-2,1.2127834E-1,1.3959904E-1,7.052287E-2,9.967021E-2,1.1743679E-1,1.5670599E-1],"split_indices":[2,4,2,2,2,4,2,2,2,0,3,2,2,4,2,0,10,2,0,0,11,11,10,0,0,10,3,1,0,0,0,11,2,10,3,3,2,10,10,8,10,10,10,2,2,10,11,11,0,11,0,2,0,0,0,4,0,0,0,0,0,0,0,0,0,0,0,0,0,0,0,0,0,0,0,0,0,0,0,0,0,0,0,0,0,0,0,0,0,0,0,0,0,0,0,0,0,0,0,0,0,0,0],"split_type":[0,0,0,0,0,0,0,0,0,0,0,0,0,0,0,0,0,0,0,0,0,0,0,0,0,0,0,0,0,0,0,0,0,0,0,0,0,0,0,0,0,0,0,0,0,0,0,0,0,0,0,0,0,0,0,0,0,0,0,0,0,0,0,0,0,0,0,0,0,0,0,0,0,0,0,0,0,0,0,0,0,0,0,0,0,0,0,0,0,0,0,0,0,0,0,0,0,0,0,0,0,0,0],"sum_hessian":[1.2125959E4,7.5920845E3,4.5338745E3,6.715793E3,8.762912E2,1.2195907E3,3.314284E3,4.7647324E3,1.951061E3,4.5240833E2,4.238829E2,6.602523E2,5.5933844E2,8.195548E2,2.494729E3,4.4621577E3,3.025744E2,1.3490685E3,6.019925E2,2.3913696E2,2.1327138E2,2.870765E2,1.368064E2,2.5250816E2,4.0774414E2,1.9680762E2,3.6253082E2,3.4885043E2,4.7070438E2,7.66552E2,1.7281771E3,2.0958187E1,2.816162E2,7.8967676E2,5.593917E2,5.317893E2,7.020322E1,6.2602905E1,1.7653406E2,7.215489E1,1.4111649E2,1.050754E2,1.820011E2,1.3213501E2,4.6713834E0,2.3881633E2,1.3691842E1,1.7326892E2,2.3447522E2,5.79853E1,1.3882231E2,2.8448544E2,7.804536E1,2.3004315E2,1.1880728E2,9.8882675E1,6.676693E2,1.2051973E0,1.9752989E1,1.3842037E0,2.80232E2,4.867981E1,7.4099695E2,1.2769231E1,5.466225E2,1.673985E0,5.301153E2,4.5840996E1,2.4362217E1,4.982456E1,1.2778346E1,1.2459766E2,5.1936405E1,4.5181175E1,2.6973719E1,9.789092E1,4.3225555E1,9.790048E1,7.174916E0,1.5523254E2,2.6768553E1,1.9504124E1,1.1263088E2,2.0707629E0,2.6006205E0,2.8641043E1,2.1017528E2,4.128716E0,9.563126E0,1.5575104E2,1.751788E1,2.1108803E2,2.3387188E1,4.6964947E1,1.1020349E1,1.00885895E2,3.7936417E1,2.159619E2,6.8523544E1,7.725657E1,1.5278658E2,4.497923E1,5.390345E1],"tree_param":{"num_deleted":"0","num_feature":"13","num_nodes":"103","size_leaf_vector":"1"}},{"base_weights":[-4.746951E-3,-9.542534E-1,1.5136852E0,-1.1479652E0,4.56162E-1,7.941465E-1,1.7774429E0,-1.3025138E0,-7.7551454E-1,1.6567908E-1,7.630659E-1,2.7632514E-1,1.4034535E0,1.498331E0,1.8693677E0,-1.0535464E-1,-1.0928644E0,-8.7761784E-1,-5.4953396E-1,3.1164783E-1,-8.440596E-2,8.5360205E-1,5.692746E-1,-7.4898815E-3,5.7430375E-1,1.2024193E0,1.5095358E0,1.1768423E0,1.3833588E-1,1.8003072E0,1.5195139E-1,-8.762108E-2,-1.5318374E-2,-9.651848E-1,-8.092623E-1,-5.6050223E-1,2.829141E-1,5.574863E-1,2.1583115E-1,-1.9377124E-1,8.2901314E-2,6.651165E-1,9.1366464E-1,6.2282604E-1,2.2330725E-1,-3.1703398E-1,6.3695274E-2,1.9775273E-1,7.5187486E-1,1.0481215E-1,1.0890622E0,1.4665064E0,1.3535416E-1,8.6625665E-1,1.4043772E0,1.5966265E0,1.461773E-1,-7.758701E-2,-4.7715664E-2,-2.65317E-2,-6.540745E-2,-2.4751937E-2,-4.6012092E-2,5.6336567E-2,-3.820269E-2,3.6318384E-2,5.6585316E-2,2.9567655E-2,4.9704695E-3,-6.829621E-2,-1.3190862E-2,-2.477972E-2,2.332342E-2,-1.967394E-2,5.9232783E-2,7.6899916E-2,6.1306186E-2,4.4284534E-2,7.531965E-2,-3.668461E-3,7.4868895E-2,-2.1202957E-2,-5.9722394E-2,2.5176606E-3,4.7605053E-2,8.61927E-3,3.887368E-2,5.3513434E-2,1.1258398E-1,8.8117E-2,1.1398536E-2,1.1296522E-1,1.2932648E-1,5.5498928E-2,8.423091E-2,9.622837E-2,1.2770352E-1,1.0683444E-1,1.4394067E-1],"categories":[],"categories_nodes":[],"categories_segments":[],"categories_sizes":[],"default_left":[0,0,0,0,0,0,0,0,0,0,0,0,0,0,0,0,0,0,0,0,0,0,0,0,0,0,0,0,0,0,0,0,0,0,0,0,0,0,0,0,0,0,0,0,0,0,0,0,0,0,0,0,0,0,0,0,0,0,0,0,0,0,0,0,0,0,0,0,0,0,0,0,0,0,0,0,0,0,0,0,0,0,0,0,0,0,0,0,0,0,0,0,0,0,0,0,0,0,0],"id":4,"left_children":[1,3,5,7,9,11,13,15,17,19,21,23,25,27,29,-1,31,33,35,37,39,41,43,45,47,49,51,53,-1,55,-1,-1,-1,57,59,61,63,65,67,69,71,73,75,77,79,81,83,85,87,-1,89,91,-1,93,95,97,-1,-1,-1,-1,-1,-1,-1,-1,-1,-1,-1,-1,-1,-1,-1,-1,-1,-1,-1,-1,-1,-1,-1,-1,-1,-1,-1,-1,-1,-1,-1,-1,-1,-1,-1,-1,-1,-1,-1,-1,-1,-1,-1],"loss_changes":[1.7070246E4,1.9907871E3,8.6309766E2,3.6768555E2,7.8361115E1,3.8570258E2,8.27041E1,1.2241211E1,4.2915894E1,1.6583889E1,7.020218E0,5.6053963E1,1.0169067E1,5.9618896E1,1.7695312E0,0E0,4.3270874E-1,6.963623E0,5.527527E0,6.6311264E0,3.08925E0,2.6707306E0,2.4404335E0,7.521583E0,2.1470146E1,1.0035706E0,3.7487793E-1,2.3540771E1,0E0,1.3447266E0,0E0,0E0,0E0,3.8580322E-1,2.6446838E0,1.9581299E0,2.9990628E0,9.156933E-1,4.8897476E0,1.8010209E0,5.5865884E0,5.234585E0,7.842865E-1,2.1278954E0,3.9212146E0,1.2273569E0,4.73487E0,2.6703439E0,1.0985428E1,0E0,1.0509262E0,1.843872E-1,0E0,4.123001E0,5.8377075E0,2.819275E0,0E0,0E0,0E0,0E0,0E0,0E0,0E0,0E0,0E0,0E0,0E0,0E0,0E0,0E0,0E0,0E0,0E0,0E0,0E0,0E0,0E0,0E0,0E0,0E0,0E0,0E0,0E0,0E0,0E0,0E0,0E0,0E0,0E0,0E0,0E0,0E0,0E0,0E0,0E0,0E0,0E0,0E0,0E0],"parents":[2147483647,0,0,1,1,2,2,3,3,4,4,5,5,6,6,7,7,8,8,9,9,10,10,11,11,12,12,13,13,14,14,16,16,17,17,18,18,19,19,20,20,21,21,22,22,23,23,24,24,25,25,26,26,27,27,29,29,33,33,34,34,35,35,36,36,37,37,38,38,39,39,40,40,41,41,42,42,43,43,44,44,45,45,46,46,47,47,48,48,50,50,51,51,53,53,54,54,55,55],"right_children":[2,4,6,8,10,12,14,16,18,20,22,24,26,28,30,-1,32,34,36,38,40,42,44,46,48,50,52,54,-1,56,-1,-1,-1,58,60,62,64,66,68,70,72,74,76,78,80,82,84,86,88,-1,90,92,-1,94,96,98,-1,-1,-1,-1,-1,-1,-1,-1,-1,-1,-1,-1,-1,-1,-1,-1,-1,-1,-1,-1,-1,-1,-1,-1,-1,-1,-1,-1,-1,-1,-1,-1,-1,-1,-1,-1,-1,-1,-1,-1,-1,-1,-1],"split_conditions":[2.27273E-1,1E0,3.80952E-1,7.6923E-2,1.36364E-1,1E0,5.2E-1,3.5714E-2,1.66667E-1,1.3E1,9E0,2.94118E-1,2.77778E-1,1E0,6.81818E-1,-1.0535464E-1,2.6E1,1.11111E-1,1.9E1,4.4E0,7.5E-1,1.57895E-1,4.9E0,4E0,5E0,4.6E0,9E0,8E0,1.3833588E-1,6E0,1.5195139E-1,-8.762108E-2,-1.5318374E-2,1.9E1,6E0,3.5E0,1.7E1,7.5E-1,1E1,4.7619E-2,1.3E1,4E0,1E1,4.8E0,1.90476E-1,4.9E0,1.7E1,4.8E0,1.6E1,1.0481215E-1,1.5E1,3.47826E-1,1.3535416E-1,6E0,1.1E1,1E0,1.461773E-1,-7.758701E-2,-4.7715664E-2,-2.65317E-2,-6.540745E-2,-2.4751937E-2,-4.6012092E-2,5.6336567E-2,-3.820269E-2,3.6318384E-2,5.6585316E-2,2.9567655E-2,4.9704695E-3,-6.829621E-2,-1.3190862E-2,-2.477972E-2,2.332342E-2,-1.967394E-2,5.9232783E-2,7.6899916E-2,6.1306186E-2,4.4284534E-2,7.531965E-2,-3.668461E-3,7.4868895E-2,-2.1202957E-2,-5.9722394E-2,2.5176606E-3,4.7605053E-2,8.61927E-3,3.887368E-2,5.3513434E-2,1.1258398E-1,8.8117E-2,1.1398536E-2,1.1296522E-1,1.2932648E-1,5.5498928E-2,8.423091E-2,9.622837E-2,1.2770352E-1,1.0683444E-1,1.4394067E-1],"split_indices":[2,4,2,2,2,4,2,2,2,0,3,2,2,4,2,0,3,2,0,11,8,2,11,3,3,11,3,0,0,0,0,0,0,3,3,11,3,8,0,2,3,11,0,11,2,11,0,11,0,0,3,2,0,0,0,4,0,0,0,0,0,0,0,0,0,0,0,0,0,0,0,0,0,0,0,0,0,0,0,0,0,0,0,0,0,0,0,0,0,0,0,0,0,0,0,0,0,0,0],"split_type":[0,0,0,0,0,0,0,0,0,0,0,0,0,0,0,0,0,0,0,0,0,0,0,0,0,0,0,0,0,0,0,0,0,0,0,0,0,0,0,0,0,0,0,0,0,0,0,0,0,0,0,0,0,0,0,0,0,0,0,0,0,0,0,0,0,0,0,0,0,0,0,0,0,0,0,0,0,0,0,0,0,0,0,0,0,0,0,0,0,0,0,0,0,0,0,0,0,0,0],"sum_hessian":[1.1837856E4,7.283628E3,4.554229E3,6.4042324E3,8.7939545E2,1.2226945E3,3.3315344E3,4.5243516E3,1.879881E3,4.5257523E2,4.2682022E2,6.617542E2,5.609403E2,8.296771E2,2.5018572E3,4.2282603E3,2.960913E2,1.2928553E3,5.870257E2,2.856196E2,1.6695561E2,2.8859064E2,1.3822958E2,3.3943152E2,3.223227E2,1.9801715E2,3.6292313E2,3.4932767E2,4.8034946E2,7.765813E2,1.7252759E3,2.9509085E2,1.0004731E0,5.610286E2,7.3182666E2,5.797141E2,7.3115435E0,7.875033E1,2.0686926E2,1.0086445E2,6.609117E1,7.2656715E1,2.1593393E2,1.1900832E2,1.922126E1,6.281796E1,2.7661356E2,1.03967186E2,2.1835551E2,9.611414E1,1.01903015E2,3.009612E2,6.1961918E1,1.4973972E2,1.9958795E2,9.766568E1,6.789156E2,5.524278E2,8.600855E0,1.3245733E1,7.1858093E2,3.317471E1,5.465394E2,4.7525544E0,2.558989E0,4.895851E1,2.979182E1,1.0271082E2,1.0415844E2,3.032301E0,9.7832146E1,2.2764837E1,4.3326332E1,5.3733644E0,6.7283356E1,1.5904454E2,5.688939E1,1.00006874E2,1.9001457E1,1.4630371E1,4.5908895E0,5.7476627E1,5.341332E0,2.617963E2,1.4817266E1,8.026851E1,2.3698677E1,1.9561693E2,2.2738586E1,1.0042383E2,1.4791892E0,2.284851E2,7.2476105E1,8.026248E1,6.9477234E1,1.00902565E2,9.8685394E1,4.5983078E1,5.16826E1],"tree_param":{"num_deleted":"0","num_feature":"13","num_nodes":"99","size_leaf_vector":"1"}},{"base_weights":[-3.7359726E-3,-9.1499263E-1,1.3982117E0,-1.1118897E0,4.3225792E-1,7.847894E-1,1.6816385E0,-1.2709216E0,-7.387519E-1,1.7807963E-1,6.941703E-1,3.215164E-1,1.3145883E0,1.4416147E0,1.7423375E0,-1.028159E-1,-8.4986374E-2,-8.303661E-1,-5.418081E-1,3.3458304E-1,-3.8296336E-3,7.7184194E-1,4.8484337E-1,-1.28496E-2,5.950068E-1,1.1063372E0,1.3990444E0,1.176524E0,1.302907E-1,1.678115E0,1.4161333E-1,-7.181509E-1,-8.774458E-1,-5.511357E-1,4.2512137E-1,4.23569E-1,2.1758449E-1,-9.761744E-2,1.4336185E-1,6.464753E-1,8.0655193E-1,6.5287803E-3,5.544097E-1,-8.508324E-2,1.9289917E-1,4.1058218E-1,9.670079E-1,8.8768184E-2,2.6049776E-2,1.3530098E0,1.2491138E-1,1.0038309E0,1.1623975E-1,1.5942339E0,1.3879873E-1,-2.6405722E-2,-5.8367234E-2,-7.2852574E-2,-6.562461E-2,4.2066447E-2,-4.4353697E-2,9.065495E-2,-5.099268E-2,2.4954712E-2,4.7586672E-2,-1.235722E-2,2.062916E-2,-7.2445005E-2,-5.3819143E-3,1.5771141E-2,-4.662921E-2,-4.3052533E-3,5.572113E-2,6.75073E-2,5.7997685E-2,3.3766344E-2,-2.371805E-2,2.913941E-2,5.3381238E-2,-8.686917E-3,5.0715473E-2,8.1654275E-3,5.2067965E-2,2.3339964E-2,5.171805E-2,6.897305E-2,1.2064785E-1,1.01970896E-1,1.16426334E-1,6.0996212E-2,8.5237384E-2,1.1319001E-1,1.3430086E-1],"categories":[],"categories_nodes":[],"categories_segments":[],"categories_sizes":[],"default_left":[0,0,0,0,0,0,0,0,0,0,0,0,0,0,0,0,0,0,0,0,0,0,0,0,0,0,0,0,0,0,0,0,0,0,0,0,0,0,0,0,0,0,0,0,0,0,0,0,0,0,0,0,0,0,0,0,0,0,0,0,0,0,0,0,0,0,0,0,0,0,0,0,0,0,0,0,0,0,0,0,0,0,0,0,0,0,0,0,0,0,0,0,0],"id":5,"left_children":[1,3,5,7,9,11,13,15,17,19,21,23,25,27,29,-1,-1,31,33,35,37,39,41,43,45,47,49,51,-1,53,-1,55,57,59,61,63,65,67,69,71,73,75,77,79,81,83,85,-1,-1,87,-1,89,-1,91,-1,-1,-1,-1,-1,-1,-1,-1,-1,-1,-1,-1,-1,-1,-1,-1,-1,-1,-1,-1,-1,-1,-1,-1,-1,-1,-1,-1,-1,-1,-1,-1,-1,-1,-1,-1,-1,-1,-1],"loss_changes":[1.4693232E4,1.8495371E3,7.864004E2,3.5996826E2,5.9095123E1,3.5146954E2,4.2623047E1,1.1330566E1,3.238611E1,1.2891654E1,6.7431946E0,7.007361E1,1.0209961E1,2.9372803E1,1.440918E0,0E0,0E0,5.922058E0,5.471512E0,2.4419022E0,2.9182775E0,8.6061096E-1,4.0279884E0,5.15439E0,2.8519684E1,1.4256287E-1,1.4137573E0,1.117804E1,0E0,8.8500977E-1,0E0,1.4109039E0,9.022827E-1,2.3280792E0,5.3210483E0,2.4374504E0,1.6464176E0,3.104026E0,3.3285074E0,2.6272182E0,1.3259888E-1,2.1896493E0,2.0268364E0,4.404785E0,3.6830304E0,7.7591515E0,6.5831757E0,0E0,0E0,1.1529541E0,0E0,1.6594849E0,0E0,2.4996948E0,0E0,0E0,0E0,0E0,0E0,0E0,0E0,0E0,0E0,0E0,0E0,0E0,0E0,0E0,0E0,0E0,0E0,0E0,0E0,0E0,0E0,0E0,0E0,0E0,0E0,0E0,0E0,0E0,0E0,0E0,0E0,0E0,0E0,0E0,0E0,0E0,0E0,0E0,0E0],"parents":[2147483647,0,0,1,1,2,2,3,3,4,4,5,5,6,6,7,7,8,8,9,9,10,10,11,11,12,12,13,13,14,14,17,17,18,18,19,19,20,20,21,21,22,22,23,23,24,24,25,25,26,26,27,27,29,29,31,31,32,32,33,33,34,34,35,35,36,36,37,37,38,38,39,39,40,40,41,41,42,42,43,43,44,44,45,45,46,46,49,49,51,51,53,53],"right_children":[2,4,6,8,10,12,14,16,18,20,22,24,26,28,30,-1,-1,32,34,36,38,40,42,44,46,48,50,52,-1,54,-1,56,58,60,62,64,66,68,70,72,74,76,78,80,82,84,86,-1,-1,88,-1,90,-1,92,-1,-1,-1,-1,-1,-1,-1,-1,-1,-1,-1,-1,-1,-1,-1,-1,-1,-1,-1,-1,-1,-1,-1,-1,-1,-1,-1,-1,-1,-1,-1,-1,-1,-1,-1,-1,-1,-1,-1],"split_conditions":[2.27273E-1,1E0,4.07407E-1,7.6923E-2,1.36364E-1,1E0,5.2E-1,3.5714E-2,1.57895E-1,1.2E1,1.2E1,2.91667E-1,2.77778E-1,1E0,6.81818E-1,-1.028159E-1,-8.4986374E-2,9E0,2.1E1,1E1,7.5E-1,1.5E-1,1E1,2.85714E-1,4E0,2.4E1,8E0,1E1,1.302907E-1,1E0,1.4161333E-1,6E0,1.11111E-1,4E0,2.4E1,7.5E-1,9E0,4.7619E-2,1.33333E-1,6E0,1E1,9E0,1.6E-1,1.9E1,8E0,3.47826E-1,6E0,8.8768184E-2,2.6049776E-2,3.47826E-1,1.2491138E-1,4.375E-1,1.1623975E-1,8E0,1.3879873E-1,-2.6405722E-2,-5.8367234E-2,-7.2852574E-2,-6.562461E-2,4.2066447E-2,-4.4353697E-2,9.065495E-2,-5.099268E-2,2.4954712E-2,4.7586672E-2,-1.235722E-2,2.062916E-2,-7.2445005E-2,-5.3819143E-3,1.5771141E-2,-4.662921E-2,-4.3052533E-3,5.572113E-2,6.75073E-2,5.7997685E-2,3.3766344E-2,-2.371805E-2,2.913941E-2,5.3381238E-2,-8.686917E-3,5.0715473E-2,8.1654275E-3,5.2067965E-2,2.3339964E-2,5.171805E-2,6.897305E-2,1.2064785E-1,1.01970896E-1,1.16426334E-1,6.0996212E-2,8.5237384E-2,1.1319001E-1,1.3430086E-1],"split_indices":[2,4,2,2,2,4,2,2,2,0,0,2,2,4,2,0,0,0,0,0,8,2,3,2,1,0,3,0,0,4,0,3,2,3,0,8,3,2,2,3,0,3,2,0,0,2,1,0,0,2,0,2,0,0,0,0,0,0,0,0,0,0,0,0,0,0,0,0,0,0,0,0,0,0,0,0,0,0,0,0,0,0,0,0,0,0,0,0,0,0,0,0,0],"split_type":[0,0,0,0,0,0,0,0,0,0,0,0,0,0,0,0,0,0,0,0,0,0,0,0,0,0,0,0,0,0,0,0,0,0,0,0,0,0,0,0,0,0,0,0,0,0,0,0,0,0,0,0,0,0,0,0,0,0,0,0,0,0,0,0,0,0,0,0,0,0,0,0,0,0,0,0,0,0,0,0,0,0,0,0,0,0,0,0,0,0,0,0,0],"sum_hessian":[1.1499243E4,6.969477E3,4.529766E3,6.0809385E3,8.8853864E2,1.4327108E3,3.0970554E3,4.2620444E3,1.8188939E3,4.5177963E2,4.36759E2,7.652013E2,6.6750946E2,6.3011707E2,2.4669385E3,3.9841826E3,2.7786188E2,1.2392186E3,5.796753E2,2.4239703E2,2.0938261E2,3.1659705E2,1.2016197E2,3.4471277E2,4.2048856E2,1.9666766E2,4.7084183E2,2.6366922E2,3.664478E2,7.643415E2,1.7025969E3,3.7105612E2,8.681624E2,5.745627E2,5.112584E0,1.3619243E2,1.06204605E2,1.2809778E2,8.128483E1,7.290429E1,2.4369275E2,1.5396261E1,1.0476571E2,2.5557333E2,8.913943E1,2.825261E2,1.3796246E2,1.9542908E2,1.2385869E0,3.740984E2,9.674344E1,1.6514536E2,9.852387E1,3.205576E2,4.437839E2,1.1479304E1,3.595768E2,5.3959E2,3.2857245E2,1.2637557E0,5.7329895E2,3.0281432E0,2.0844407E0,8.415751E1,5.203492E1,1.0098079E1,9.610652E1,3.5926964E0,1.2450508E2,7.635896E1,4.925871E0,4.856889E0,6.80474E1,1.6083444E2,8.2858315E1,6.3266697E0,9.0695915E0,4.0592712E1,6.4173004E1,2.483058E2,7.2675285E0,7.540604E1,1.3733391E1,1.893678E2,9.315829E1,1.1774157E2,2.0220896E1,2.1945772E2,1.5464067E2,3.631197E1,1.2883339E2,1.0836188E2,2.1219571E2],"tree_param":{"num_deleted":"0","num_feature":"13","num_nodes":"93","size_leaf_vector":"1"}},{"base_weights":[-6.242347E-3,-8.808642E-1,1.301203E0,-1.0749568E0,3.7918216E-1,7.090726E-1,1.5777265E0,-1.2417138E0,-6.9661003E-1,1.2563567E-1,6.44821E-1,2.7024257E-1,1.207392E0,1.3431109E0,1.6377211E0,-1.0058315E-1,-1.0165007E0,-7.9722774E-1,-4.8243552E-1,3.2141137E-1,-2.0947374E-2,5.613657E-1,7.5980425E-1,-1.1447213E-1,4.640265E-1,1.0022774E0,1.2933837E0,1.0766196E0,1.225939E-1,1.5473604E0,1.325302E-1,-7.185573E-1,-8.286687E-2,-8.6876166E-1,-6.975393E-1,-5.2498096E-1,-3.0153415E-1,2.4350196E-1,4.413377E-1,1.8535355E-1,-1.3126367E-1,6.584129E-1,3.7982813E-1,3.8215432E-1,7.9738694E-1,6.541537E-1,-1.3473773E-1,2.979849E-1,8.474862E-1,1.1554983E0,9.276609E-1,1.2054806E0,1.4197499E0,8.237074E-1,1.25366E0,1.4226322E0,1.3078007E-1,2.0766804E-2,-6.331881E-2,-4.9084567E-2,-7.07793E-2,-1.8252295E-2,-5.662256E-2,-4.2742237E-2,3.536529E-2,4.622019E-2,-2.807436E-2,3.3870388E-2,6.8031806E-3,-6.601852E-3,3.972907E-2,5.1247105E-3,4.204837E-2,-2.0491365E-2,2.0864834E-3,1.1049269E-2,5.5746786E-2,1.20948695E-1,2.6331643E-2,4.261967E-2,-3.31403E-2,6.045962E-2,9.682315E-2,7.439422E-2,-2.9942892E-2,1.2870125E-2,-1.3909703E-2,1.7187808E-2,4.2728495E-2,5.4048475E-2,9.09697E-2,5.558607E-2,9.575086E-2,4.5492284E-2,7.852552E-2,4.1526098E-2,9.819625E-2,8.214771E-2,1.1671804E-1,6.882877E-2,6.8778214E-3,9.16804E-2,1.15230784E-1,1.0663422E-1,1.2679212E-1],"categories":[],"categories_nodes":[],"categories_segments":[],"categories_sizes":[],"default_left":[0,0,0,0,0,0,0,0,0,0,0,0,0,0,0,0,0,0,0,0,0,0,0,0,0,0,0,0,0,0,0,0,0,0,0,0,0,0,0,0,0,0,0,0,0,0,0,0,0,0,0,0,0,0,0,0,0,0,0,0,0,0,0,0,0,0,0,0,0,0,0,0,0,0,0,0,0,0,0,0,0,0,0,0,0,0,0,0,0,0,0,0,0,0,0,0,0,0,0,0,0,0,0,0,0],"id":6,"left_children":[1,3,5,7,9,11,13,15,17,19,21,23,25,27,29,-1,31,33,35,37,39,41,43,45,47,49,51,53,-1,55,-1,57,-1,59,61,63,65,67,69,71,73,75,77,79,81,83,85,87,89,91,93,95,97,99,101,103,-1,-1,-1,-1,-1,-1,-1,-1,-1,-1,-1,-1,-1,-1,-1,-1,-1,-1,-1,-1,-1,-1,-1,-1,-1,-1,-1,-1,-1,-1,-1,-1,-1,-1,-1,-1,-1,-1,-1,-1,-1,-1,-1,-1,-1,-1,-1,-1,-1],"loss_changes":[1.2767862E4,1.636564E3,7.316655E2,3.6490186E2,6.0111298E1,3.1161243E2,4.0729492E1,1.283252E1,3.788318E1,1.3164479E1,3.7592468E0,5.6697617E1,1.0480286E1,2.9964111E1,1.578125E0,0E0,7.84729E-1,7.9987793E0,4.2297516E0,1.7273006E0,6.0127115E0,4.2702866E0,2.258812E0,4.065156E0,3.193177E1,1.2337646E0,3.4760132E0,1.0771423E1,0E0,2.4118652E0,0E0,1.5921755E0,0E0,2.305603E0,2.2866058E0,4.3739014E0,5.019679E0,3.420631E0,2.2446404E0,3.767126E0,3.3869796E0,3.2189407E0,4.766199E0,2.4116416E0,1.8939896E0,2.2566905E0,2.9153323E0,6.840046E0,6.8086166E0,3.500061E-1,2.1647797E0,3.6166382E0,1.3678284E0,2.940117E0,1.4281006E0,6.060791E-1,0E0,0E0,0E0,0E0,0E0,0E0,0E0,0E0,0E0,0E0,0E0,0E0,0E0,0E0,0E0,0E0,0E0,0E0,0E0,0E0,0E0,0E0,0E0,0E0,0E0,0E0,0E0,0E0,0E0,0E0,0E0,0E0,0E0,0E0,0E0,0E0,0E0,0E0,0E0,0E0,0E0,0E0,0E0,0E0,0E0,0E0,0E0,0E0,0E0],"parents":[2147483647,0,0,1,1,2,2,3,3,4,4,5,5,6,6,7,7,8,8,9,9,10,10,11,11,12,12,13,13,14,14,16,16,17,17,18,18,19,19,20,20,21,21,22,22,23,23,24,24,25,25,26,26,27,27,29,29,31,31,33,33,34,34,35,35,36,36,37,37,38,38,39,39,40,40,41,41,42,42,43,43,44,44,45,45,46,46,47,47,48,48,49,49,50,50,51,51,52,52,53,53,54,54,55,55],"right_children":[2,4,6,8,10,12,14,16,18,20,22,24,26,28,30,-1,32,34,36,38,40,42,44,46,48,50,52,54,-1,56,-1,58,-1,60,62,64,66,68,70,72,74,76,78,80,82,84,86,88,90,92,94,96,98,100,102,104,-1,-1,-1,-1,-1,-1,-1,-1,-1,-1,-1,-1,-1,-1,-1,-1,-1,-1,-1,-1,-1,-1,-1,-1,-1,-1,-1,-1,-1,-1,-1,-1,-1,-1,-1,-1,-1,-1,-1,-1,-1,-1,-1,-1,-1,-1,-1,-1,-1],"split_conditions":[2.27273E-1,1E0,4.07407E-1,7.6923E-2,1.36364E-1,1E0,5.2E-1,3.5714E-2,1.66667E-1,1.1E1,1.92308E-1,2.85714E-1,2.77778E-1,1E0,5E0,-1.0058315E-1,3.5E1,1.15385E-1,1.3E2,7.5E-1,4.5E0,1.2E1,3.9E0,1E0,4E0,3.8E1,3.52941E-1,8E0,1.225939E-1,1E0,1.325302E-1,3.1E0,-8.286687E-2,2E1,6E0,2.1E1,3.4E0,5E1,2.5E1,1.1E2,4.8E0,3.9E0,1E0,3.8E0,1.2E1,1.3E1,2E1,3.47826E-1,5E0,5E0,5E0,5E0,1.7E1,3.7E2,6E0,7.6E-1,1.3078007E-1,2.0766804E-2,-6.331881E-2,-4.9084567E-2,-7.07793E-2,-1.8252295E-2,-5.662256E-2,-4.2742237E-2,3.536529E-2,4.622019E-2,-2.807436E-2,3.3870388E-2,6.8031806E-3,-6.601852E-3,3.972907E-2,5.1247105E-3,4.204837E-2,-2.0491365E-2,2.0864834E-3,1.1049269E-2,5.5746786E-2,1.20948695E-1,2.6331643E-2,4.261967E-2,-3.31403E-2,6.045962E-2,9.682315E-2,7.439422E-2,-2.9942892E-2,1.2870125E-2,-1.3909703E-2,1.7187808E-2,4.2728495E-2,5.4048475E-2,9.09697E-2,5.558607E-2,9.575086E-2,4.5492284E-2,7.852552E-2,4.1526098E-2,9.819625E-2,8.214771E-2,1.1671804E-1,6.882877E-2,6.8778214E-3,9.16804E-2,1.15230784E-1,1.0663422E-1,1.2679212E-1],"split_indices":[2,4,2,2,2,4,2,2,2,0,2,2,2,4,1,0,10,2,10,8,11,0,11,11,1,10,2,0,0,4,0,11,0,10,3,0,11,10,10,10,11,11,11,11,3,0,10,2,1,10,0,10,10,10,1,2,0,0,0,0,0,0,0,0,0,0,0,0,0,0,0,0,0,0,0,0,0,0,0,0,0,0,0,0,0,0,0,0,0,0,0,0,0,0,0,0,0,0,0,0,0,0,0,0,0],"split_type":[0,0,0,0,0,0,0,0,0,0,0,0,0,0,0,0,0,0,0,0,0,0,0,0,0,0,0,0,0,0,0,0,0,0,0,0,0,0,0,0,0,0,0,0,0,0,0,0,0,0,0,0,0,0,0,0,0,0,0,0,0,0,0,0,0,0,0,0,0,0,0,0,0,0,0,0,0,0,0,0,0,0,0,0,0,0,0,0,0,0,0,0,0,0,0,0,0,0,0,0,0,0,0,0,0],"sum_hessian":[1.1163397E4,6.689051E3,4.4743467E3,5.796351E3,8.927001E2,1.4254784E3,3.0488682E3,4.0215596E3,1.7747914E3,4.574996E2,4.3520044E2,7.588033E2,6.666751E2,6.25636E2,2.4232322E3,3.7571355E3,2.6442398E2,1.205659E3,5.691323E2,1.9537067E2,2.6212894E2,2.5558092E2,1.7961952E2,2.5431898E2,5.0448428E2,2.006719E2,4.660032E2,2.62628E2,3.6300797E2,4.3362494E2,1.9896072E3,1.8439844E1,2.4598413E2,6.9746246E2,5.0819653E2,4.5922668E2,1.0990564E2,1.20269035E2,7.510163E1,9.1094406E1,1.7103455E2,1.6483551E2,9.07454E1,1.7268213E1,1.6235132E2,5.729606E0,2.4858937E2,3.532855E2,1.511988E2,6.0975784E1,1.3969612E2,2.8104303E2,1.8496016E2,1.1046912E2,1.5215889E2,1.8576746E2,2.4785748E2,1.1018491E0,1.7337996E1,4.341981E1,6.5404266E2,1.1349787E1,4.9684677E2,4.552971E2,3.929616E0,5.276802E0,1.0462884E2,5.5545227E1,6.472381E1,7.121028E0,6.7980606E1,6.80307E1,2.3063705E1,9.500492E1,7.6029625E1,1.1651369E1,1.5318414E2,2.6532516E0,8.809215E1,1.4800647E1,2.467567E0,1.5004903E2,1.23022785E1,4.593623E0,1.1359829E0,2.8697563E1,2.1989182E2,2.626999E2,9.058558E1,9.697991E1,5.4218884E1,6.4929433E0,5.448284E1,1.974575E1,1.1995037E2,9.481266E0,2.7156177E2,1.9256388E1,1.6570378E2,1.050822E2,5.38692E0,1.0104151E2,5.111737E1,1.2556691E2,6.0200546E1],"tree_param":{"num_deleted":"0","num_feature":"13","num_nodes":"105","size_leaf_vector":"1"}},{"base_weights":[-1.2582147E-2,-8.5559016E-1,1.2173132E0,-1.0478092E0,3.277958E-1,6.5302587E-1,1.4873337E0,-1.2172661E0,-6.728843E-1,7.654297E-2,4.9548122E-1,2.4457118E-1,1.1201594E0,1.2412161E0,1.5511441E0,-1.2324314E0,-9.939446E-1,-7.6705676E-1,-4.7934484E-1,2.009431E-1,-1.2028744E-1,3.6172503E-1,5.830212E-1,-4.9674932E-2,4.802384E-1,8.9092803E-1,1.2173704E0,9.7276586E-1,1.15096025E-1,1.4591283E0,1.2593463E-1,-9.8616615E-2,-3.691449E-2,-6.3327676E-1,-1.0148102E0,-8.458333E-1,-7.0729417E-1,-5.2307224E-1,-3.0098543E-1,2.880526E-1,-3.7757207E-3,1.7693044E-1,-2.0133893E-1,4.4709992E-1,1.16484806E-1,5.6063396E-1,1.2890832E0,-1.2144641E-1,1.4953353E-1,3.2724753E-1,7.9002273E-1,1.0438919E0,8.166637E-1,1.1745201E0,1.3796344E0,7.3118603E-1,1.144475E0,1.3277626E0,1.2044872E-1,-5.9643716E-2,4.0732566E-3,-4.317511E-2,-8.178315E-2,-5.243413E-2,-6.89554E-2,-5.7245243E-2,-3.477767E-2,-4.395599E-2,-2.3741113E-2,2.0671114E-2,-3.1493865E-2,1.7973946E-2,5.747487E-2,-1.4573836E-2,2.2746336E-2,3.809591E-2,-1.1594851E-2,-1.3366414E-2,-5.9320405E-2,-7.2959345E-3,3.878068E-2,-5.209845E-2,2.2350276E-2,5.139985E-2,3.5261914E-2,1.3533957E-1,1.9715972E-2,-1.6249646E-2,2.9463917E-3,4.2672358E-3,4.950747E-2,1.71789E-2,4.431377E-2,5.0240573E-2,8.2377635E-2,4.8935104E-2,8.6997174E-2,4.8613854E-2,7.361569E-2,9.719898E-2,6.7637645E-2,8.526679E-2,1.16818585E-1,2.3470575E-2,6.137258E-2,8.353033E-2,1.0605799E-1,1.07034974E-1,3.245472E-2],"categories":[],"categories_nodes":[],"categories_segments":[],"categories_sizes":[],"default_left":[0,0,0,0,0,0,0,0,0,0,0,0,0,0,0,0,0,0,0,0,0,0,0,0,0,0,0,0,0,0,0,0,0,0,0,0,0,0,0,0,0,0,0,0,0,0,0,0,0,0,0,0,0,0,0,0,0,0,0,0,0,0,0,0,0,0,0,0,0,0,0,0,0,0,0,0,0,0,0,0,0,0,0,0,0,0,0,0,0,0,0,0,0,0,0,0,0,0,0,0,0,0,0,0,0,0,0,0,0],"id":7,"left_children":[1,3,5,7,9,11,13,15,17,19,21,23,25,27,29,31,33,35,37,39,41,43,45,47,49,51,53,55,-1,57,-1,-1,-1,59,61,63,65,67,69,71,73,75,77,79,81,83,85,87,89,91,93,95,97,99,101,103,105,107,-1,-1,-1,-1,-1,-1,-1,-1,-1,-1,-1,-1,-1,-1,-1,-1,-1,-1,-1,-1,-1,-1,-1,-1,-1,-1,-1,-1,-1,-1,-1,-1,-1,-1,-1,-1,-1,-1,-1,-1,-1,-1,-1,-1,-1,-1,-1,-1,-1,-1,-1],"loss_changes":[1.1215778E4,1.4603032E3,6.693447E2,3.4999268E2,3.777984E1,2.7173383E2,4.4791992E1,1.1649414E1,3.1E1,8.8504E0,6.0903015E0,5.285347E1,1.3728577E1,3.1334778E1,2.7021484E0,1.8896484E-1,1.2154999E0,4.8442993E0,4.2568054E0,3.946536E0,3.4135003E0,4.4602356E0,4.3929214E0,4.8753114E0,1.9795174E1,1.4385681E0,1.6062622E0,1.0147263E1,0E0,9.678955E-1,0E0,0E0,0E0,1.2795157E0,2.7182007E-1,9.4906616E-1,1.1847534E0,2.5422668E0,6.0016365E0,4.0724354E0,3.4968278E0,3.014324E0,1.923593E0,3.2777328E0,7.3107376E0,2.812149E0,3.4356441E0,3.2430577E0,4.049226E0,7.14826E0,4.7581863E0,5.0847626E-1,2.4778824E0,3.9506836E0,7.507782E-1,1.5510788E0,1.3986664E0,7.2805786E-1,0E0,0E0,0E0,0E0,0E0,0E0,0E0,0E0,0E0,0E0,0E0,0E0,0E0,0E0,0E0,0E0,0E0,0E0,0E0,0E0,0E0,0E0,0E0,0E0,0E0,0E0,0E0,0E0,0E0,0E0,0E0,0E0,0E0,0E0,0E0,0E0,0E0,0E0,0E0,0E0,0E0,0E0,0E0,0E0,0E0,0E0,0E0,0E0,0E0,0E0,0E0],"parents":[2147483647,0,0,1,1,2,2,3,3,4,4,5,5,6,6,7,7,8,8,9,9,10,10,11,11,12,12,13,13,14,14,15,15,16,16,17,17,18,18,19,19,20,20,21,21,22,22,23,23,24,24,25,25,26,26,27,27,29,29,33,33,34,34,35,35,36,36,37,37,38,38,39,39,40,40,41,41,42,42,43,43,44,44,45,45,46,46,47,47,48,48,49,49,50,50,51,51,52,52,53,53,54,54,55,55,56,56,57,57],"right_children":[2,4,6,8,10,12,14,16,18,20,22,24,26,28,30,32,34,36,38,40,42,44,46,48,50,52,54,56,-1,58,-1,-1,-1,60,62,64,66,68,70,72,74,76,78,80,82,84,86,88,90,92,94,96,98,100,102,104,106,108,-1,-1,-1,-1,-1,-1,-1,-1,-1,-1,-1,-1,-1,-1,-1,-1,-1,-1,-1,-1,-1,-1,-1,-1,-1,-1,-1,-1,-1,-1,-1,-1,-1,-1,-1,-1,-1,-1,-1,-1,-1,-1,-1,-1,-1,-1,-1,-1,-1,-1,-1],"split_conditions":[2.27273E-1,6E0,4.07407E-1,7.6923E-2,1.15385E-1,6E0,5.2E-1,4.5455E-2,1.57895E-1,1.3E1,1.6E-1,2.94118E-1,2.77778E-1,6E0,6.31579E-1,2.7E1,3.1E0,1.11111E-1,1.3E2,8.5E1,4.3E0,1.4E1,5.4E2,1.2E1,4E0,3.8E1,1.25E2,8E0,1.15096025E-1,8E0,1.2593463E-1,-9.8616615E-2,-3.691449E-2,2.6E0,1.5E1,2.5E1,1.5E1,1.3E1,1.45E2,7.5E1,1E1,8E1,2.1E1,4E0,4.2E0,6.6E1,4.8E0,4.7E0,2.85714E-1,3.47826E-1,5E0,5E0,6.5E1,9E1,7E0,3E0,6E0,5.65E2,1.2044872E-1,-5.9643716E-2,4.0732566E-3,-4.317511E-2,-8.178315E-2,-5.243413E-2,-6.89554E-2,-5.7245243E-2,-3.477767E-2,-4.395599E-2,-2.3741113E-2,2.0671114E-2,-3.1493865E-2,1.7973946E-2,5.747487E-2,-1.4573836E-2,2.2746336E-2,3.809591E-2,-1.1594851E-2,-1.3366414E-2,-5.9320405E-2,-7.2959345E-3,3.878068E-2,-5.209845E-2,2.2350276E-2,5.139985E-2,3.5261914E-2,1.3533957E-1,1.9715972E-2,-1.6249646E-2,2.9463917E-3,4.2672358E-3,4.950747E-2,1.71789E-2,4.431377E-2,5.0240573E-2,8.2377635E-2,4.8935104E-2,8.6997174E-2,4.8613854E-2,7.361569E-2,9.719898E-2,6.7637645E-2,8.526679E-2,1.16818585E-1,2.3470575E-2,6.137258E-2,8.353033E-2,1.0605799E-1,1.07034974E-1,3.245472E-2],"split_indices":[2,6,2,2,2,6,2,2,2,0,2,2,2,6,2,3,11,2,10,10,11,0,10,0,1,10,10,0,0,0,0,0,0,11,10,10,3,0,10,10,3,10,3,11,11,10,11,11,2,2,1,10,10,10,0,0,1,10,0,0,0,0,0,0,0,0,0,0,0,0,0,0,0,0,0,0,0,0,0,0,0,0,0,0,0,0,0,0,0,0,0,0,0,0,0,0,0,0,0,0,0,0,0,0,0,0,0,0,0],"split_type":[0,0,0,0,0,0,0,0,0,0,0,0,0,0,0,0,0,0,0,0,0,0,0,0,0,0,0,0,0,0,0,0,0,0,0,0,0,0,0,0,0,0,0,0,0,0,0,0,0,0,0,0,0,0,0,0,0,0,0,0,0,0,0,0,0,0,0,0,0,0,0,0,0,0,0,0,0,0,0,0,0,0,0,0,0,0,0,0,0,0,0,0,0,0,0,0,0,0,0,0,0,0,0,0,0,0,0,0,0],"sum_hessian":[1.0815562E4,6.417271E3,4.39829E3,5.520657E3,8.9661395E2,1.4245962E3,2.973694E3,3.8006226E3,1.7200345E3,3.5946423E2,5.371497E2,7.608466E2,6.637495E2,6.164581E2,2.3572358E3,3.5547104E3,2.4591214E2,1.155048E3,5.649866E2,2.2024487E2,1.3921935E2,2.1451498E2,3.2263474E2,3.3872067E2,4.2212595E2,2.0068443E2,4.630651E2,2.6379465E2,3.526635E2,4.8490018E2,1.8723357E3,3.5528384E3,1.8719949E0,1.5163128E1,2.3074901E2,4.92587E2,6.62461E2,4.5219235E2,1.1279419E2,1.5421718E2,6.60277E1,2.9576956E1,1.09642395E2,1.5851013E2,5.6004856E1,3.144582E2,8.176551E0,2.4929442E2,8.942626E1,2.8395004E2,1.3817592E2,6.132193E1,1.393625E2,3.7284384E2,9.022125E1,1.117834E2,1.5201125E2,1.3445729E2,3.5044287E2,1.2948692E1,2.214435E0,4.7098703E0,2.2603914E2,4.1675877E1,4.5091113E2,6.4137286E2,2.1088093E1,4.0370966E2,4.8482716E1,1.5779104E1,9.701508E1,1.3574884E2,1.8468336E1,4.100482E1,2.5022879E1,1.5078032E1,1.4498923E1,1.0433453E2,5.3078556E0,1.027112E1,1.4823901E2,9.27833E0,4.672653E1,1.8425323E2,1.3020496E2,5.449431E0,2.7271202E0,1.6425288E2,8.5041534E1,7.5138916E1,1.4287348E1,1.9106241E2,9.288763E1,8.460801E1,5.3567917E1,6.993273E0,5.432866E1,4.844366E1,9.0918846E1,3.2961484E2,4.322901E1,2.1344166E1,6.887708E1,9.182283E0,1.0260112E2,1.0219408E2,4.981718E1,1.3254375E2,1.9135444E0],"tree_param":{"num_deleted":"0","num_feature":"13","num_nodes":"109","size_leaf_vector":"1"}},{"base_weights":[-1.3797549E-2,-8.221009E-1,1.1463454E0,-1.0135858E0,3.0952045E-1,6.096074E-1,1.4108578E0,-1.2095191E0,-6.6671854E-1,1.1510367E-3,4.5271164E-1,2.3656072E-1,1.0512289E0,1.1589422E0,1.4782043E0,-9.6784316E-2,-3.86698E-2,-7.993021E-1,-4.9522698E-1,2.669142E-1,-7.499067E-2,3.2701066E-1,5.6410307E-1,-2.3432234E-2,4.4441718E-1,9.075837E-1,1.1871786E0,8.9381284E-1,1.0875099E-1,1.4014628E0,1.20960034E-1,-8.934189E-1,-7.3938125E-1,-6.077793E-1,-4.3520266E-1,5.0943114E-2,6.784164E-1,-1.2098773E-1,1.9390933E-1,3.8359326E-1,1.0446996E-1,6.565517E-1,4.3853837E-1,4.3168147E-3,-5.445299E-1,3.6066094E-1,8.707817E-1,5.323392E-1,9.372387E-1,5.9895927E-1,1.2081181E0,6.2510896E-1,1.0853281E0,1.2998312E0,1.1762338E-1,-5.6164287E-2,-7.3009126E-2,-4.1916497E-2,-6.0627345E-2,-5.0907057E-2,-2.6999937E-2,-3.534046E-2,2.5003867E-2,2.2506757E-2,-2.0821154E-2,2.830882E-2,8.0285184E-2,-3.9629573E-3,-4.5212056E-2,5.8341272E-2,-2.3756301E-2,-1.0979419E-2,3.178835E-2,-2.6403889E-2,1.9615792E-2,4.7182254E-2,7.1135774E-2,2.8143618E-2,7.8287855E-2,-5.0318316E-3,1.5653316E-2,1.08751105E-2,-8.2961254E-2,1.6166436E-2,3.8167514E-2,5.316363E-2,9.539027E-2,7.835132E-2,-1.5600236E-3,3.496202E-2,7.604196E-2,5.8967173E-2,-3.4192145E-2,9.735492E-2,4.2069297E-2,3.8578678E-2,6.7986645E-2,7.7236176E-2,9.905025E-2,7.716483E-2,1.0823799E-1],"categories":[],"categories_nodes":[],"categories_segments":[],"categories_sizes":[],"default_left":[0,0,0,0,0,0,0,0,0,0,0,0,0,0,0,0,0,0,0,0,0,0,0,0,0,0,0,0,0,0,0,0,0,0,0,0,0,0,0,0,0,0,0,0,0,0,0,0,0,0,0,0,0,0,0,0,0,0,0,0,0,0,0,0,0,0,0,0,0,0,0,0,0,0,0,0,0,0,0,0,0,0,0,0,0,0,0,0,0,0,0,0,0,0,0,0,0,0,0,0,0],"id":8,"left_children":[1,3,5,7,9,11,13,15,17,19,21,23,25,27,29,-1,-1,31,33,35,37,39,41,43,45,47,49,51,-1,53,-1,55,57,59,61,63,65,67,69,71,73,75,77,79,81,83,85,87,89,91,93,95,97,99,-1,-1,-1,-1,-1,-1,-1,-1,-1,-1,-1,-1,-1,-1,-1,-1,-1,-1,-1,-1,-1,-1,-1,-1,-1,-1,-1,-1,-1,-1,-1,-1,-1,-1,-1,-1,-1,-1,-1,-1,-1,-1,-1,-1,-1,-1,-1],"loss_changes":[9.76206E3,1.3297837E3,6.060371E2,3.558423E2,3.92409E1,2.3252802E2,4.685498E1,1.07910156E-1,4.2724365E1,5.742928E0,8.313225E0,4.1472565E1,1.1552002E1,3.112378E1,3.7304688E0,0E0,0E0,5.3620605E0,5.339752E0,5.5823116E0,2.752122E0,3.5802383E0,3.4311523E0,4.945002E0,1.4913528E1,3.0475464E0,3.3287964E0,1.2953796E1,0E0,3.0080566E0,0E0,8.676758E-1,2.2209473E0,1.992836E0,2.8063126E0,3.122545E0,1.9319248E0,5.9701567E0,8.785778E0,1.6947899E0,3.7288795E0,2.3108063E0,6.1612606E0,4.19907E0,5.935114E0,6.5157356E0,3.8043137E0,6.3486485E0,1.5387573E0,2.1995792E0,1.265564E0,3.2053566E0,1.6128235E0,3.9078674E0,0E0,0E0,0E0,0E0,0E0,0E0,0E0,0E0,0E0,0E0,0E0,0E0,0E0,0E0,0E0,0E0,0E0,0E0,0E0,0E0,0E0,0E0,0E0,0E0,0E0,0E0,0E0,0E0,0E0,0E0,0E0,0E0,0E0,0E0,0E0,0E0,0E0,0E0,0E0,0E0,0E0,0E0,0E0,0E0,0E0,0E0,0E0],"parents":[2147483647,0,0,1,1,2,2,3,3,4,4,5,5,6,6,7,7,8,8,9,9,10,10,11,11,12,12,13,13,14,14,17,17,18,18,19,19,20,20,21,21,22,22,23,23,24,24,25,25,26,26,27,27,29,29,31,31,32,32,33,33,34,34,35,35,36,36,37,37,38,38,39,39,40,40,41,41,42,42,43,43,44,44,45,45,46,46,47,47,48,48,49,49,50,50,51,51,52,52,53,53],"right_children":[2,4,6,8,10,12,14,16,18,20,22,24,26,28,30,-1,-1,32,34,36,38,40,42,44,46,48,50,52,-1,54,-1,56,58,60,62,64,66,68,70,72,74,76,78,80,82,84,86,88,90,92,94,96,98,100,-1,-1,-1,-1,-1,-1,-1,-1,-1,-1,-1,-1,-1,-1,-1,-1,-1,-1,-1,-1,-1,-1,-1,-1,-1,-1,-1,-1,-1,-1,-1,-1,-1,-1,-1,-1,-1,-1,-1,-1,-1,-1,-1,-1,-1,-1,-1],"split_conditions":[2.27273E-1,1E0,4.07407E-1,5.2632E-2,1.07143E-1,1E0,5.2E-1,2.7E1,1.30435E-1,4.3E0,1.6E-1,2.94118E-1,3.125E-1,1E0,6.81818E-1,-9.6784316E-2,-3.86698E-2,9.0909E-2,1.66667E-1,4.1E0,1.85E2,1.4E1,6.6E1,4.95E2,1.3E1,2.4E-1,5E0,8E0,1.0875099E-1,1E0,1.20960034E-1,4E0,1.7E1,1.3E1,2.1E1,3.8E0,1.1E1,1.15E2,2.85E2,6E0,4.4E0,5.5E1,3.85E2,2.85714E-1,4.6E0,5E0,3.68421E-1,6.6E1,5E0,3.91304E-1,6.8E2,4.7E0,1.2E1,6E0,1.1762338E-1,-5.6164287E-2,-7.3009126E-2,-4.1916497E-2,-6.0627345E-2,-5.0907057E-2,-2.6999937E-2,-3.534046E-2,2.5003867E-2,2.2506757E-2,-2.0821154E-2,2.830882E-2,8.0285184E-2,-3.9629573E-3,-4.5212056E-2,5.8341272E-2,-2.3756301E-2,-1.0979419E-2,3.178835E-2,-2.6403889E-2,1.9615792E-2,4.7182254E-2,7.1135774E-2,2.8143618E-2,7.8287855E-2,-5.0318316E-3,1.5653316E-2,1.08751105E-2,-8.2961254E-2,1.6166436E-2,3.8167514E-2,5.316363E-2,9.539027E-2,7.835132E-2,-1.5600236E-3,3.496202E-2,7.604196E-2,5.8967173E-2,-3.4192145E-2,9.735492E-2,4.2069297E-2,3.8578678E-2,6.7986645E-2,7.7236176E-2,9.905025E-2,7.716483E-2,1.0823799E-1],"split_indices":[2,4,2,2,2,4,2,3,2,11,2,2,2,4,2,0,0,2,2,11,10,0,10,10,0,2,10,0,0,4,0,11,10,3,0,11,3,10,10,3,11,10,10,2,11,3,2,10,10,2,10,11,0,0,0,0,0,0,0,0,0,0,0,0,0,0,0,0,0,0,0,0,0,0,0,0,0,0,0,0,0,0,0,0,0,0,0,0,0,0,0,0,0,0,0,0,0,0,0,0,0],"split_type":[0,0,0,0,0,0,0,0,0,0,0,0,0,0,0,0,0,0,0,0,0,0,0,0,0,0,0,0,0,0,0,0,0,0,0,0,0,0,0,0,0,0,0,0,0,0,0,0,0,0,0,0,0,0,0,0,0,0,0,0,0,0,0,0,0,0,0,0,0,0,0,0,0,0,0,0,0,0,0,0,0,0,0,0,0,0,0,0,0,0,0,0,0,0,0,0,0,0,0,0,0],"sum_hessian":[1.0408111E4,6.134399E3,4.273712E3,5.246695E3,8.877042E2,1.411948E3,2.861764E3,3.3512197E3,1.895475E3,2.8181323E2,6.05891E2,7.6623193E2,6.457161E2,6.075134E2,2.2542507E3,3.3492402E3,1.979608E0,1.0669406E3,8.2853436E2,6.220142E1,2.1961182E2,2.8651044E2,3.1938055E2,3.4081622E2,4.2541568E2,3.1770428E2,3.2801184E2,2.6390488E2,3.4360852E2,7.0220703E2,1.5520436E3,4.0963055E2,6.5731006E2,2.850005E2,5.435338E2,4.1529205E1,2.0672215E1,1.880028E2,3.1609016E1,2.2785336E2,5.8657085E1,1.8151149E2,1.3786906E2,3.2452652E2,1.6289692E1,3.5710992E2,6.830577E1,2.4656755E1,2.9304755E2,1.2292818E1,3.1571902E2,1.1159562E2,1.5230927E2,2.915694E2,4.106376E2,4.0768303E1,3.6886224E2,5.42007E1,6.031094E2,2.5653915E2,2.8461338E1,5.392175E2,4.316333E0,2.3918207E1,1.7610996E1,1.13906355E1,9.281579E0,1.6290797E2,2.5094835E1,1.4886966E1,1.6722052E1,5.6342244E0,2.2221915E2,1.402068E1,4.4636406E1,1.4377928E2,3.7732204E1,1.2021225E2,1.7656813E1,2.406615E2,8.386502E1,7.1434894E0,9.146203E0,1.5234851E2,2.0476141E2,4.348543E1,2.4820335E1,1.3193641E1,1.1463115E1,8.45899E0,2.8458856E2,1.108307E1,1.2097477E0,3.1091656E2,4.8024626E0,7.014476E1,4.1450855E1,8.9450935E1,6.2858334E1,4.2513313E1,2.4905608E2],"tree_param":{"num_deleted":"0","num_feature":"13","num_nodes":"101","size_leaf_vector":"1"}},{"base_weights":[-8.578342E-3,-7.8988636E-1,1.086553E0,-9.860184E-1,2.879578E-1,6.059369E-1,1.3671521E0,-1.1731417E0,-6.004676E-1,-1.5641972E-2,4.2675784E-1,2.591638E-1,9.9983203E-1,1.119835E0,1.4179565E0,-9.529994E-2,-9.2632186E-1,-7.3936695E-1,-4.5961523E-1,2.3517549E-1,-8.717065E-2,3.0840677E-1,5.303538E-1,-3.0881466E-2,4.5937306E-1,7.8205186E-1,1.0812634E0,8.6763203E-1,1.0468585E-1,1.3491396E0,1.1589886E-1,-3.8990918E-1,-9.3652797E-1,-7.6680154E-1,-5.1494765E-1,-5.005417E-1,-3.0355865E-1,-4.4861937E-1,2.8987673E-1,4.4385293E-3,-2.024326E-1,3.558961E-1,7.514982E-2,5.029083E-1,9.3015057E-1,-4.6462766E-3,-5.891061E-1,2.8966346E-1,6.2452704E-1,8.17199E-1,5.597943E-1,5.641223E-1,1.0962859E0,4.671668E-1,9.638359E-1,1.26382E0,1.4065793E0,-1.52468365E-2,-4.1617163E-2,-1.3158616E-2,-7.515982E-2,-6.2823646E-2,-5.2500155E-2,-5.89681E-2,-3.5036482E-2,-4.1964903E-2,-2.4264485E-2,3.0557167E-2,-2.7735548E-2,-5.232306E-2,1.1870054E-2,1.853744E-2,8.219935E-2,-3.3600836E-3,2.4940068E-2,1.5598275E-3,-2.7208094E-2,4.201436E-2,2.5959862E-2,-6.075246E-2,1.896993E-2,4.5546968E-2,2.8351404E-2,1.0065672E-1,4.620823E-2,-9.901685E-3,1.0324748E-2,3.9811046E-3,-7.792796E-2,1.6172815E-2,4.77931E-2,4.3076638E-2,8.378793E-2,9.9865384E-2,6.309061E-2,6.991636E-2,-2.8981023E-2,2.5628954E-2,8.194905E-2,8.411686E-2,1.01548925E-1,4.371828E-2,-4.910275E-2,7.122182E-2,9.324474E-2,7.977817E-2,1.0443539E-1,1.1270048E-1,4.0738676E-2],"categories":[],"categories_nodes":[],"categories_segments":[],"categories_sizes":[],"default_left":[0,0,0,0,0,0,0,0,0,0,0,0,0,0,0,0,0,0,0,0,0,0,0,0,0,0,0,0,0,0,0,0,0,0,0,0,0,0,0,0,0,0,0,0,0,0,0,0,0,0,0,0,0,0,0,0,0,0,0,0,0,0,0,0,0,0,0,0,0,0,0,0,0,0,0,0,0,0,0,0,0,0,0,0,0,0,0,0,0,0,0,0,0,0,0,0,0,0,0,0,0,0,0,0,0,0,0,0,0],"id":9,"left_children":[1,3,5,7,9,11,13,15,17,19,21,23,25,27,29,-1,31,33,35,37,39,41,43,45,47,49,51,53,-1,55,-1,57,59,61,63,65,67,69,71,73,75,77,79,81,83,85,87,89,91,93,95,97,99,101,103,105,107,-1,-1,-1,-1,-1,-1,-1,-1,-1,-1,-1,-1,-1,-1,-1,-1,-1,-1,-1,-1,-1,-1,-1,-1,-1,-1,-1,-1,-1,-1,-1,-1,-1,-1,-1,-1,-1,-1,-1,-1,-1,-1,-1,-1,-1,-1,-1,-1,-1,-1,-1,-1],"loss_changes":[8.585492E3,1.2382607E3,5.6261426E2,3.5676025E2,3.8030785E1,2.1034943E2,3.1546387E1,1.3799805E1,3.1374512E1,5.116836E0,7.4290924E0,4.7709007E1,1.1950317E1,2.0482605E1,2.6713867E0,0E0,9.0727234E-1,4.620117E0,5.005432E0,2.4979255E0,2.3424916E0,3.2015934E0,3.1403503E0,4.9231963E0,1.3440346E1,1.104744E0,3.441162E0,7.153351E0,0E0,1.6011963E0,0E0,5.8067143E-2,3.667755E-1,9.64386E-1,1.246851E0,2.864334E0,5.1686573E0,7.202188E-1,2.3025165E0,1.7904179E0,3.0076737E0,1.1151657E0,7.015383E0,2.8554535E0,1.5801868E0,5.148864E0,3.7600813E0,6.383997E0,8.367813E0,1.1153641E0,9.146245E0,1.5578775E0,2.5967407E0,3.779212E0,1.3098297E0,1.8858032E0,7.019043E-2,0E0,0E0,0E0,0E0,0E0,0E0,0E0,0E0,0E0,0E0,0E0,0E0,0E0,0E0,0E0,0E0,0E0,0E0,0E0,0E0,0E0,0E0,0E0,0E0,0E0,0E0,0E0,0E0,0E0,0E0,0E0,0E0,0E0,0E0,0E0,0E0,0E0,0E0,0E0,0E0,0E0,0E0,0E0,0E0,0E0,0E0,0E0,0E0,0E0,0E0,0E0,0E0],"parents":[2147483647,0,0,1,1,2,2,3,3,4,4,5,5,6,6,7,7,8,8,9,9,10,10,11,11,12,12,13,13,14,14,16,16,17,17,18,18,19,19,20,20,21,21,22,22,23,23,24,24,25,25,26,26,27,27,29,29,31,31,32,32,33,33,34,34,35,35,36,36,37,37,38,38,39,39,40,40,41,41,42,42,43,43,44,44,45,45,46,46,47,47,48,48,49,49,50,50,51,51,52,52,53,53,54,54,55,55,56,56],"right_children":[2,4,6,8,10,12,14,16,18,20,22,24,26,28,30,-1,32,34,36,38,40,42,44,46,48,50,52,54,-1,56,-1,58,60,62,64,66,68,70,72,74,76,78,80,82,84,86,88,90,92,94,96,98,100,102,104,106,108,-1,-1,-1,-1,-1,-1,-1,-1,-1,-1,-1,-1,-1,-1,-1,-1,-1,-1,-1,-1,-1,-1,-1,-1,-1,-1,-1,-1,-1,-1,-1,-1,-1,-1,-1,-1,-1,-1,-1,-1,-1,-1,-1,-1,-1,-1,-1,-1,-1,-1,-1,-1],"split_conditions":[2.27273E-1,1E0,4.4E-1,7.6923E-2,1.07143E-1,1E0,5.2E-1,3.5714E-2,1.30435E-1,4.3E0,1.6E-1,2.94118E-1,2.77778E-1,1E0,6.81818E-1,-9.529994E-2,1.5E1,4.9E0,1.2E2,5.8824E-2,1.2E1,1.2E1,3.35E2,5.05E2,3.47826E-1,1.6E2,5E0,3E0,1.0468585E-1,1E0,1.1589886E-1,6.6667E-2,3.8462E-2,1.6E2,8.6957E-2,2.10526E-1,3.5E0,1.8E1,2.55E2,1.85E2,6.6667E-2,4.2E0,4.2E0,9E0,4.6E0,6E1,4.6E0,1.05E2,8E0,3.2E0,1E1,7E0,8E0,3.7E2,6E0,2.5E1,9E2,-1.52468365E-2,-4.1617163E-2,-1.3158616E-2,-7.515982E-2,-6.2823646E-2,-5.2500155E-2,-5.89681E-2,-3.5036482E-2,-4.1964903E-2,-2.4264485E-2,3.0557167E-2,-2.7735548E-2,-5.232306E-2,1.1870054E-2,1.853744E-2,8.219935E-2,-3.3600836E-3,2.4940068E-2,1.5598275E-3,-2.7208094E-2,4.201436E-2,2.5959862E-2,-6.075246E-2,1.896993E-2,4.5546968E-2,2.8351404E-2,1.0065672E-1,4.620823E-2,-9.901685E-3,1.0324748E-2,3.9811046E-3,-7.792796E-2,1.6172815E-2,4.77931E-2,4.3076638E-2,8.378793E-2,9.9865384E-2,6.309061E-2,6.991636E-2,-2.8981023E-2,2.5628954E-2,8.194905E-2,8.411686E-2,1.01548925E-1,4.371828E-2,-4.910275E-2,7.122182E-2,9.324474E-2,7.977817E-2,1.0443539E-1,1.1270048E-1,4.0738676E-2],"split_indices":[2,4,2,2,2,4,2,2,2,11,2,2,2,4,2,0,10,11,10,2,3,3,10,10,2,10,10,3,0,4,0,2,2,10,2,2,11,3,10,10,2,11,11,3,11,10,11,10,3,11,3,3,3,10,3,10,10,0,0,0,0,0,0,0,0,0,0,0,0,0,0,0,0,0,0,0,0,0,0,0,0,0,0,0,0,0,0,0,0,0,0,0,0,0,0,0,0,0,0,0,0,0,0,0,0,0,0,0,0],"split_type":[0,0,0,0,0,0,0,0,0,0,0,0,0,0,0,0,0,0,0,0,0,0,0,0,0,0,0,0,0,0,0,0,0,0,0,0,0,0,0,0,0,0,0,0,0,0,0,0,0,0,0,0,0,0,0,0,0,0,0,0,0,0,0,0,0,0,0,0,0,0,0,0,0,0,0,0,0,0,0,0,0,0,0,0,0,0,0,0,0,0,0,0,0,0,0,0,0,0,0,0,0,0,0,0,0,0,0,0,0],"sum_hessian":[1.0032059E4,5.8550933E3,4.176966E3,4.953758E3,9.0133545E2,1.5408779E3,2.636088E3,3.3337244E3,1.6200332E3,2.830665E2,6.18269E2,8.2033673E2,7.205412E2,4.5315552E2,2.1829324E3,3.102304E3,2.3142058E2,8.1353235E2,8.0650085E2,6.2304844E1,2.2076164E2,2.904394E2,3.2782962E2,3.3535303E2,4.849837E2,1.9898352E2,5.215577E2,1.9636203E2,2.567935E2,6.884727E2,1.4944596E3,5.052931E0,2.2636765E2,7.227601E2,9.077225E1,6.3718835E2,1.6931255E2,4.081585E0,5.822326E1,1.2353701E2,9.722463E1,2.408736E2,4.956579E1,3.0888312E2,1.8946478E1,3.212628E2,1.4090241E1,2.4055116E2,2.4443256E2,1.6950218E2,2.9481348E1,1.5811392E1,5.0574628E2,3.916924E1,1.5719278E2,2.8626474E2,4.02208E2,2.97096E0,2.0819707E0,1.0834885E0,2.2528416E2,6.139481E2,1.08811935E2,2.1155592E1,6.961666E1,5.665353E2,7.065307E1,9.558093E0,1.5975446E2,2.9656048E0,1.1159799E0,5.5186142E1,3.037116E0,1.08069405E2,1.5467606E1,3.7550014E1,5.967462E1,3.5225605E1,2.05648E2,7.456829E0,4.210896E1,2.1146468E2,9.741846E1,8.483434E0,1.0463045E1,1.6993437E2,1.513284E2,5.625634E0,8.464607E0,1.8858678E2,5.196438E1,2.049805E2,3.9452053E1,7.8799777E0,1.616222E2,2.2028156E1,7.4531903E0,1.1445507E1,4.365885E0,4.0732703E2,9.841925E1,3.695241E1,2.2168312E0,1.19153885E2,3.8038895E1,4.2028713E1,2.4423601E2,4.006662E2,1.5417907E0],"tree_param":{"num_deleted":"0","num_feature":"13","num_nodes":"109","size_leaf_vector":"1"}},{"base_weights":[-1.3215848E-2,-7.643374E-1,1.0290846E0,-9.6019596E-1,2.566333E-1,5.237663E-1,1.2943889E0,-1.155776E0,-5.7425374E-1,8.870239E-2,4.3262458E-1,2.1005403E-1,9.0338916E-1,1.0408362E0,1.3644154E0,-9.390484E-2,-9.128443E-1,-6.659149E-1,-3.888329E-1,2.1222717E-1,-5.830303E-2,4.9837065E-1,2.9486763E-1,-6.8015526E-3,3.8260424E-1,7.523199E-1,1.0352886E0,7.917064E-1,1.2276092E0,1.2870262E0,1.11912E-1,-2.4077756E-2,-9.1534305E-1,-7.32468E-1,-5.755876E-1,-4.194017E-1,-1.6880752E-1,4.186441E-1,1.5811425E-1,-3.7979443E-2,-5.0744087E-1,3.7817642E-1,5.650204E-1,3.479359E-1,-2.9628197E-2,-6.562844E-2,1.5673928E-1,3.1275713E-1,8.646259E-1,8.4855723E-1,6.6251993E-1,9.311181E-1,1.1297203E0,6.832957E-1,1.1092887E0,8.7207064E-2,1.0090552E-1,1.1808772E0,1.0825244E-1,-5.3621687E-2,-7.4286915E-2,-6.0826E-2,-4.1584596E-2,-4.7051046E-2,-1.7966114E-2,4.8458654E-2,-3.395358E-2,-5.0852876E-2,-1.7532752E-3,2.488972E-2,4.5871455E-2,9.928401E-3,2.8837614E-2,7.4593863E-3,-8.8703865E-3,-6.975143E-2,1.5451381E-2,3.463926E-2,8.893431E-3,3.6798954E-2,4.8253454E-2,1.7698828E-2,3.8793154E-2,-1.9483063E-2,3.9787322E-2,-7.1685486E-3,2.588022E-2,4.418355E-2,7.139407E-3,-1.0516292E-2,2.8926497E-2,5.2018918E-2,9.168663E-2,7.035624E-2,4.7409073E-2,4.4690203E-2,6.612626E-2,2.551853E-2,7.658371E-2,9.880682E-2,8.218268E-2,5.2185473E-3,5.6799863E-2,4.0833715E-2,9.245509E-2,8.21361E-2,1.0423642E-1],"categories":[],"categories_nodes":[],"categories_segments":[],"categories_sizes":[],"default_left":[0,0,0,0,0,0,0,0,0,0,0,0,0,0,0,0,0,0,0,0,0,0,0,0,0,0,0,0,0,0,0,0,0,0,0,0,0,0,0,0,0,0,0,0,0,0,0,0,0,0,0,0,0,0,0,0,0,0,0,0,0,0,0,0,0,0,0,0,0,0,0,0,0,0,0,0,0,0,0,0,0,0,0,0,0,0,0,0,0,0,0,0,0,0,0,0,0,0,0,0,0,0,0,0,0,0,0],"id":10,"left_children":[1,3,5,7,9,11,13,15,17,19,21,23,25,27,29,-1,31,33,35,37,39,41,43,45,47,49,51,53,55,57,-1,-1,59,61,63,65,67,69,71,73,75,77,79,81,83,85,87,89,91,93,95,97,99,101,103,-1,-1,105,-1,-1,-1,-1,-1,-1,-1,-1,-1,-1,-1,-1,-1,-1,-1,-1,-1,-1,-1,-1,-1,-1,-1,-1,-1,-1,-1,-1,-1,-1,-1,-1,-1,-1,-1,-1,-1,-1,-1,-1,-1,-1,-1,-1,-1,-1,-1,-1,-1],"loss_changes":[7.580276E3,1.125492E3,5.4297266E2,3.5573926E2,2.6753578E1,1.6627365E2,4.578125E1,1.2653809E1,2.6764526E1,8.458878E0,3.859703E0,2.8688538E1,1.18172E1,2.5994019E1,3.75E0,0E0,6.236267E-2,5.966278E0,3.4830933E0,2.75949E0,1.9265766E0,2.1736908E0,2.5136566E0,3.2878594E0,1.410379E1,2.0158997E0,2.2417603E0,7.8882294E0,1.5206909E-1,2.9901123E0,0E0,0E0,9.033203E-2,3.20755E0,1.8744049E0,2.6401749E0,4.520999E0,6.8578243E-1,1.3456836E0,1.9716221E0,2.5040379E0,1.552001E0,4.8257446E-1,2.06242E0,2.5282366E0,2.3734403E0,2.3648589E0,8.16917E0,2.4811745E0,5.893402E-1,2.246292E0,2.336975E0,5.7614136E-1,3.086525E0,1.1414261E0,0E0,0E0,3.532318E0,0E0,0E0,0E0,0E0,0E0,0E0,0E0,0E0,0E0,0E0,0E0,0E0,0E0,0E0,0E0,0E0,0E0,0E0,0E0,0E0,0E0,0E0,0E0,0E0,0E0,0E0,0E0,0E0,0E0,0E0,0E0,0E0,0E0,0E0,0E0,0E0,0E0,0E0,0E0,0E0,0E0,0E0,0E0,0E0,0E0,0E0,0E0,0E0,0E0],"parents":[2147483647,0,0,1,1,2,2,3,3,4,4,5,5,6,6,7,7,8,8,9,9,10,10,11,11,12,12,13,13,14,14,16,16,17,17,18,18,19,19,20,20,21,21,22,22,23,23,24,24,25,25,26,26,27,27,28,28,29,29,32,32,33,33,34,34,35,35,36,36,37,37,38,38,39,39,40,40,41,41,42,42,43,43,44,44,45,45,46,46,47,47,48,48,49,49,50,50,51,51,52,52,53,53,54,54,57,57],"right_children":[2,4,6,8,10,12,14,16,18,20,22,24,26,28,30,-1,32,34,36,38,40,42,44,46,48,50,52,54,56,58,-1,-1,60,62,64,66,68,70,72,74,76,78,80,82,84,86,88,90,92,94,96,98,100,102,104,-1,-1,106,-1,-1,-1,-1,-1,-1,-1,-1,-1,-1,-1,-1,-1,-1,-1,-1,-1,-1,-1,-1,-1,-1,-1,-1,-1,-1,-1,-1,-1,-1,-1,-1,-1,-1,-1,-1,-1,-1,-1,-1,-1,-1,-1,-1,-1,-1,-1,-1,-1],"split_conditions":[2.27273E-1,1E0,4.07407E-1,7.6923E-2,1.36364E-1,1E0,5.2E-1,3.5714E-2,1.66667E-1,1.2E1,9E0,2.94118E-1,3.04348E-1,1E0,6.81818E-1,-9.390484E-2,3.8462E-2,1.15385E-1,1.3E1,4.3E0,2E1,4.5E0,4.9E0,2.85714E-1,5E0,4.6E0,3.52941E-1,1.2E1,4.375E-1,9E0,1.11912E-1,-2.4077756E-2,3.1E0,4.9E0,1.5E1,4E0,1.78571E-1,4.1E0,4.9E0,4.5E0,2.5E1,8E0,1.57895E-1,4.6E0,1.90476E-1,1.7E1,4.1E0,4E0,6E0,2.91667E-1,2.77778E-1,3.7E0,4.6E0,3E0,3.9E0,8.7207064E-2,1.0090552E-1,1E0,1.0825244E-1,-5.3621687E-2,-7.4286915E-2,-6.0826E-2,-4.1584596E-2,-4.7051046E-2,-1.7966114E-2,4.8458654E-2,-3.395358E-2,-5.0852876E-2,-1.7532752E-3,2.488972E-2,4.5871455E-2,9.928401E-3,2.8837614E-2,7.4593863E-3,-8.8703865E-3,-6.975143E-2,1.5451381E-2,3.463926E-2,8.893431E-3,3.6798954E-2,4.8253454E-2,1.7698828E-2,3.8793154E-2,-1.9483063E-2,3.9787322E-2,-7.1685486E-3,2.588022E-2,4.418355E-2,7.139407E-3,-1.0516292E-2,2.8926497E-2,5.2018918E-2,9.168663E-2,7.035624E-2,4.7409073E-2,4.4690203E-2,6.612626E-2,2.551853E-2,7.658371E-2,9.880682E-2,8.218268E-2,5.2185473E-3,5.6799863E-2,4.0833715E-2,9.245509E-2,8.21361E-2,1.0423642E-1],"split_indices":[2,4,2,2,2,4,2,2,2,0,3,2,2,4,2,0,2,2,0,11,3,11,11,2,1,11,2,0,2,0,0,0,11,11,3,3,2,11,11,11,0,3,2,11,2,0,11,0,1,2,2,11,11,0,11,0,0,4,0,0,0,0,0,0,0,0,0,0,0,0,0,0,0,0,0,0,0,0,0,0,0,0,0,0,0,0,0,0,0,0,0,0,0,0,0,0,0,0,0,0,0,0,0,0,0,0,0],"split_type":[0,0,0,0,0,0,0,0,0,0,0,0,0,0,0,0,0,0,0,0,0,0,0,0,0,0,0,0,0,0,0,0,0,0,0,0,0,0,0,0,0,0,0,0,0,0,0,0,0,0,0,0,0,0,0,0,0,0,0,0,0,0,0,0,0,0,0,0,0,0,0,0,0,0,0,0,0,0,0,0,0,0,0,0,0,0,0,0,0,0,0,0,0,0,0,0,0,0,0,0,0,0,0,0,0,0,0],"sum_hessian":[9.68037E3,5.6261895E3,4.0541807E3,4.7206587E3,9.055309E2,1.3967676E3,2.657413E3,3.1316626E3,1.5889961E3,4.6414633E2,4.4138452E2,7.656249E2,6.311427E2,5.7852966E2,2.0788833E3,2.911677E3,2.1998544E2,1.0616082E3,5.273878E2,2.5197485E2,2.121715E2,2.9701364E2,1.443709E2,3.3968292E2,4.25942E2,2.9731763E2,3.3382507E2,2.5012953E2,3.2840015E2,6.526193E2,1.426264E3,1.3886693E0,2.1859679E2,6.0715063E2,4.5445758E2,4.6225864E2,6.512919E1,5.0936813E1,2.0103804E2,2.0402393E2,8.147568E0,1.0832948E2,1.8868414E2,1.2401687E2,2.0354033E1,2.5026086E2,8.942205E1,3.7347293E2,5.2469063E1,1.3943628E2,1.5788136E2,1.6389159E2,1.699335E2,1.8882379E2,6.130575E1,7.121462E1,2.5718552E2,2.5774792E2,3.9487143E2,1.385317E1,2.047436E2,5.3455273E2,7.259789E1,4.3811697E2,1.6340595E1,1.6686126E0,4.6059003E2,1.479142E1,5.033777E1,3.1830719E1,1.9106092E1,1.73493E2,2.7545046E1,7.276565E1,1.3125827E2,5.198644E0,2.948923E0,8.936255E1,1.8966928E1,5.3750153E1,1.3493399E2,6.5784E1,5.8232872E1,1.4859886E1,5.494145E0,2.3645984E2,1.38010235E1,1.198763E1,7.743442E1,3.6816555E1,3.3665637E2,3.166198E1,2.0807085E1,1.22243744E2,1.7192528E1,9.936319E1,5.8518177E1,7.2622066E0,1.5662938E2,7.831888E1,9.1614624E1,7.962589E0,1.8086119E2,5.2713137E0,5.603444E1,1.18058556E2,1.3968936E2],"tree_param":{"num_deleted":"0","num_feature":"13","num_nodes":"107","size_leaf_vector":"1"}},{"base_weights":[-6.143082E-3,-7.56313E-1,9.4807804E-1,-9.43908E-1,2.309354E-1,4.873139E-1,1.2689394E0,-1.1562722E0,-5.8844537E-1,1.0154714E-1,3.8968143E-1,1.7534307E-1,8.639069E-1,1.0376688E0,1.3176743E0,-1.1566176E0,-2.4131851E-2,-6.982326E-1,-4.372065E-1,-2.654335E-2,1.757574E-1,5.455273E-1,3.1902298E-1,-1.1046318E-1,3.4173873E-1,7.655519E-1,1.0769138E0,8.2139534E-1,9.651706E-2,1.2015907E0,1.3427782E0,-9.2656665E-2,-7.306413E-2,-8.327175E-1,-6.474365E-1,5.8343217E-2,-4.4078258E-1,2.7474648E-1,-1.118228E-1,1.6903488E-1,7.99568E-2,8.979703E-2,5.1062894E-1,7.467845E-2,3.800311E-1,-2.0763463E-1,4.3823715E-2,2.0599097E-1,6.45714E-1,6.645591E-1,8.622016E-1,8.3271995E-2,9.9608526E-2,4.2323843E-1,9.1127807E-1,1.0554659E0,1.05029225E-1,1.2707989E0,1.0865587E-1,-6.0697477E-2,-7.1913704E-2,-5.3415727E-2,-3.825245E-2,-3.3372283E-2,-5.0181195E-2,-9.817209E-4,5.8078118E-2,-1.8531157E-2,-5.697903E-4,1.48431705E-2,-2.1555956E-2,-5.2915845E-2,4.240561E-2,-1.3970997E-2,4.265431E-2,3.9094377E-2,1.7003378E-2,-1.0450885E-2,-2.9388785E-2,1.2131269E-2,-1.8567936E-2,9.947448E-3,2.9640427E-2,3.8574446E-2,6.698079E-2,5.3535648E-2,-6.983688E-3,6.434854E-2,8.4138796E-2,2.6711408E-2,8.996359E-2,6.7051955E-2,9.171126E-2,7.674028E-2,9.965752E-2,9.5916085E-2,1.07837796E-1],"categories":[],"categories_nodes":[],"categories_segments":[],"categories_sizes":[],"default_left":[0,0,0,0,0,0,0,0,0,0,0,0,0,0,0,0,0,0,0,0,0,0,0,0,0,0,0,0,0,0,0,0,0,0,0,0,0,0,0,0,0,0,0,0,0,0,0,0,0,0,0,0,0,0,0,0,0,0,0,0,0,0,0,0,0,0,0,0,0,0,0,0,0,0,0,0,0,0,0,0,0,0,0,0,0,0,0,0,0,0,0,0,0,0,0,0,0],"id":11,"left_children":[1,3,5,7,9,11,13,15,17,19,21,23,25,27,29,31,-1,33,35,37,39,41,43,45,47,49,51,53,-1,55,57,-1,-1,59,61,-1,63,65,67,69,-1,-1,71,73,75,77,79,81,83,85,87,-1,-1,89,91,93,-1,95,-1,-1,-1,-1,-1,-1,-1,-1,-1,-1,-1,-1,-1,-1,-1,-1,-1,-1,-1,-1,-1,-1,-1,-1,-1,-1,-1,-1,-1,-1,-1,-1,-1,-1,-1,-1,-1,-1,-1],"loss_changes":[6.6742656E3,9.669846E2,6.060918E2,3.304624E2,1.7097294E1,1.979596E2,2.589209E1,4.6191406E-1,2.6969421E1,4.3869267E0,3.9477425E0,4.395697E1,1.517627E1,1.4547791E1,4.19751E0,4.1503906E-3,0E0,5.951111E0,3.214676E0,4.3982763E0,1.4481459E0,1.7494354E0,3.8466606E0,5.1151257E0,2.3962334E1,4.56073E0,1.5042114E-1,6.403839E0,0E0,4.5334473E0,8.3740234E-2,0E0,0E0,5.769043E-1,2.0612488E0,0E0,2.7878876E0,4.9029856E0,1.6692708E0,2.1550608E0,0E0,0E0,2.8710651E0,6.172313E0,3.67696E0,2.5241604E0,3.9750473E0,5.3957825E0,5.2283173E0,9.7019196E-1,2.063614E0,0E0,0E0,1.9308548E0,1.6854019E0,1.7790833E0,0E0,6.5460205E-2,0E0,0E0,0E0,0E0,0E0,0E0,0E0,0E0,0E0,0E0,0E0,0E0,0E0,0E0,0E0,0E0,0E0,0E0,0E0,0E0,0E0,0E0,0E0,0E0,0E0,0E0,0E0,0E0,0E0,0E0,0E0,0E0,0E0,0E0,0E0,0E0,0E0,0E0,0E0],"parents":[2147483647,0,0,1,1,2,2,3,3,4,4,5,5,6,6,7,7,8,8,9,9,10,10,11,11,12,12,13,13,14,14,15,15,17,17,18,18,19,19,20,20,21,21,22,22,23,23,24,24,25,25,26,26,27,27,29,29,30,30,33,33,34,34,36,36,37,37,38,38,39,39,42,42,43,43,44,44,45,45,46,46,47,47,48,48,49,49,50,50,53,53,54,54,55,55,57,57],"right_children":[2,4,6,8,10,12,14,16,18,20,22,24,26,28,30,32,-1,34,36,38,40,42,44,46,48,50,52,54,-1,56,58,-1,-1,60,62,-1,64,66,68,70,-1,-1,72,74,76,78,80,82,84,86,88,-1,-1,90,92,94,-1,96,-1,-1,-1,-1,-1,-1,-1,-1,-1,-1,-1,-1,-1,-1,-1,-1,-1,-1,-1,-1,-1,-1,-1,-1,-1,-1,-1,-1,-1,-1,-1,-1,-1,-1,-1,-1,-1,-1,-1],"split_conditions":[2.10526E-1,1E0,4.4E-1,5.2632E-2,1.36364E-1,1E0,5.2E-1,2.7E1,1.30435E-1,9.0909E-2,7E0,2.85714E-1,3.52941E-1,1E0,5E0,4.1667E-2,-2.4131851E-2,8E-2,4E0,4.3E0,2.5E1,3E0,4.3E0,1E1,4E0,2.77778E-1,6E0,5E0,9.651706E-2,1E0,6.31579E-1,-9.2656665E-2,-7.306413E-2,6.8966E-2,4.9E0,5.8343217E-2,4.9E0,7.5E-1,4.7E0,1.9E1,7.99568E-2,8.979703E-2,3.1E0,1E1,1.2E1,9E0,4.8E0,3.47826E-1,5E0,2.4E1,8E0,8.3271995E-2,9.9608526E-2,5E0,1.2E1,7.6E-1,1.05029225E-1,1.2E1,1.0865587E-1,-6.0697477E-2,-7.1913704E-2,-5.3415727E-2,-3.825245E-2,-3.3372283E-2,-5.0181195E-2,-9.817209E-4,5.8078118E-2,-1.8531157E-2,-5.697903E-4,1.48431705E-2,-2.1555956E-2,-5.2915845E-2,4.240561E-2,-1.3970997E-2,4.265431E-2,3.9094377E-2,1.7003378E-2,-1.0450885E-2,-2.9388785E-2,1.2131269E-2,-1.8567936E-2,9.947448E-3,2.9640427E-2,3.8574446E-2,6.698079E-2,5.3535648E-2,-6.983688E-3,6.434854E-2,8.4138796E-2,2.6711408E-2,8.996359E-2,6.7051955E-2,9.171126E-2,7.674028E-2,9.965752E-2,9.5916085E-2,1.07837796E-1],"split_indices":[2,4,2,2,2,4,2,3,2,2,0,2,2,4,1,2,0,2,3,11,0,11,11,0,1,2,1,0,0,4,2,0,0,2,11,0,11,8,11,0,0,0,11,3,0,0,11,2,1,0,3,0,0,11,0,2,0,0,0,0,0,0,0,0,0,0,0,0,0,0,0,0,0,0,0,0,0,0,0,0,0,0,0,0,0,0,0,0,0,0,0,0,0,0,0,0,0],"split_type":[0,0,0,0,0,0,0,0,0,0,0,0,0,0,0,0,0,0,0,0,0,0,0,0,0,0,0,0,0,0,0,0,0,0,0,0,0,0,0,0,0,0,0,0,0,0,0,0,0,0,0,0,0,0,0,0,0,0,0,0,0,0,0,0,0,0,0,0,0,0,0,0,0,0,0,0,0,0,0,0,0,0,0,0,0,0,0,0,0,0,0,0,0,0,0,0,0],"sum_hessian":[9.321838E3,5.2190444E3,4.1027935E3,4.385722E3,8.333221E2,1.685252E3,2.4175417E3,2.7440752E3,1.6416472E3,4.600177E2,3.733044E2,9.225086E2,7.6274335E2,4.2465295E2,1.9928887E3,2.742613E3,1.4619752E0,9.490767E2,6.9257043E2,1.6898453E2,2.9103317E2,1.14356514E2,2.5894788E2,3.39577E2,5.8293164E2,5.2494586E2,2.3779745E2,1.8871806E2,2.359349E2,3.6303552E2,1.6298531E3,2.7210632E3,2.1549921E1,2.5597603E2,6.931007E2,1.4964612E0,6.91074E2,3.6788853E1,1.3219568E2,2.8987262E2,1.160532E0,4.7452216E0,1.096113E2,5.2181026E1,2.0676686E2,2.0814157E2,1.3143544E2,4.041334E2,1.7879823E2,2.6055664E2,2.6438925E2,2.0178038E2,3.601707E1,3.5807785E1,1.5291028E2,1.6147432E2,2.015612E2,3.0227625E2,1.3275769E3,1.2675574E2,1.2922029E2,6.1638525E2,7.671547E1,6.16229E2,7.484494E1,2.3080582E1,1.3708272E1,6.1082226E1,7.111345E1,2.7991342E2,9.959207E0,1.2496372E0,1.0836166E2,3.4202213E1,1.7978813E1,1.2424956E2,8.25173E1,1.4166644E2,6.647513E1,9.483068E1,3.6604755E1,2.7126257E2,1.328708E2,9.834929E1,8.0448944E1,2.5906897E2,1.4876689E0,2.065845E2,5.780476E1,3.3070705E1,2.7370772E0,1.2011504E2,3.279523E1,1.1125417E2,5.022015E1,1.6510309E2,1.3717314E2],"tree_param":{"num_deleted":"0","num_feature":"13","num_nodes":"97","size_leaf_vector":"1"}},{"base_weights":[-9.888565E-3,-7.0892215E-1,9.383761E-1,-1.142965E0,-2.8339678E-1,4.9436617E-1,1.223781E0,-9.15059E-2,-3.5214993E-1,-5.4920495E-1,2.1844554E-1,2.1753341E-1,8.303953E-1,9.6805686E-1,1.2789552E0,-7.170261E-2,4.0328216E-2,-7.1648157E-1,-4.1158083E-1,5.6799773E-2,3.8606867E-1,9.389771E-2,5.084075E-1,7.371664E-1,1.0048211E0,7.123564E-1,9.361145E-2,1.1664746E0,1.3031847E0,-8.308913E-1,-6.5574676E-1,-5.124503E-1,-3.275832E-1,-9.907138E-2,1.1119512E-1,4.3660408E-1,2.8041396E-1,-6.9420084E-2,2.1569984E-1,3.925175E-1,8.912426E-1,6.2891E-1,8.164032E-1,9.6199566E-1,9.632766E-2,5.921892E-1,9.4274235E-1,1.0247072E0,1.0209019E-1,1.2249936E0,1.0560559E-1,-5.115857E-2,-6.745638E-2,-5.4328375E-2,-3.803023E-2,2.364425E-3,-4.2094927E-2,-3.0205943E-2,-1.5987959E-2,4.4040526E-3,-1.4490101E-2,2.0643637E-2,4.5929677E-3,2.8109448E-2,3.875028E-2,2.0172749E-2,7.313262E-2,-1.7428976E-2,-1.6296378E-3,4.3556765E-3,3.2060266E-2,7.9423204E-2,2.9670274E-2,7.372225E-2,1.1967318E-2,5.3861305E-2,3.6157697E-2,6.1715964E-2,8.223605E-2,8.80677E-2,7.026885E-2,3.154214E-2,5.3370833E-2,3.9112583E-2,7.967855E-2,7.478566E-2,9.6215054E-2,9.236153E-2,1.0397637E-1],"categories":[],"categories_nodes":[],"categories_segments":[],"categories_sizes":[],"default_left":[0,0,0,0,0,0,0,0,0,0,0,0,0,0,0,0,0,0,0,0,0,0,0,0,0,0,0,0,0,0,0,0,0,0,0,0,0,0,0,0,0,0,0,0,0,0,0,0,0,0,0,0,0,0,0,0,0,0,0,0,0,0,0,0,0,0,0,0,0,0,0,0,0,0,0,0,0,0,0,0,0,0,0,0,0,0,0,0,0],"id":12,"left_children":[1,3,5,7,9,11,13,-1,15,17,19,21,23,25,27,-1,-1,29,31,33,35,37,39,41,43,45,-1,47,49,51,53,55,57,59,61,63,65,67,69,71,73,75,77,79,-1,81,83,85,-1,87,-1,-1,-1,-1,-1,-1,-1,-1,-1,-1,-1,-1,-1,-1,-1,-1,-1,-1,-1,-1,-1,-1,-1,-1,-1,-1,-1,-1,-1,-1,-1,-1,-1,-1,-1,-1,-1,-1,-1],"loss_changes":[5.9481426E3,9.5372E2,4.819358E2,1.3337402E0,3.4823236E2,1.3857477E2,3.1456543E1,0E0,2.4173844E0,3.8986816E1,2.4481716E1,2.9412594E1,1.0210022E1,2.0628967E1,3.6660156E0,0E0,0E0,4.7974854E0,7.7836914E0,3.9243574E0,2.2471008E0,1.14746685E1,1.048077E1,3.2831573E0,8.199158E-1,4.5885468E0,0E0,4.083252E0,4.387207E-1,8.0337524E-2,1.8130798E0,3.1771011E0,3.2120628E0,1.5266736E0,2.6912227E0,1.0449448E0,2.3906603E0,1.7929329E0,9.832313E0,2.089077E0,1.1186066E0,1.1979141E0,1.6053772E0,1.3065796E0,0E0,1.5891228E0,1.0120392E0,1.3765411E0,0E0,2.859497E-2,0E0,0E0,0E0,0E0,0E0,0E0,0E0,0E0,0E0,0E0,0E0,0E0,0E0,0E0,0E0,0E0,0E0,0E0,0E0,0E0,0E0,0E0,0E0,0E0,0E0,0E0,0E0,0E0,0E0,0E0,0E0,0E0,0E0,0E0,0E0,0E0,0E0,0E0,0E0],"parents":[2147483647,0,0,1,1,2,2,3,3,4,4,5,5,6,6,8,8,9,9,10,10,11,11,12,12,13,13,14,14,17,17,18,18,19,19,20,20,21,21,22,22,23,23,24,24,25,25,27,27,28,28,29,29,30,30,31,31,32,32,33,33,34,34,35,35,36,36,37,37,38,38,39,39,40,40,41,41,42,42,43,43,45,45,46,46,47,47,49,49],"right_children":[2,4,6,8,10,12,14,-1,16,18,20,22,24,26,28,-1,-1,30,32,34,36,38,40,42,44,46,-1,48,50,52,54,56,58,60,62,64,66,68,70,72,74,76,78,80,-1,82,84,86,-1,88,-1,-1,-1,-1,-1,-1,-1,-1,-1,-1,-1,-1,-1,-1,-1,-1,-1,-1,-1,-1,-1,-1,-1,-1,-1,-1,-1,-1,-1,-1,-1,-1,-1,-1,-1,-1,-1,-1,-1],"split_conditions":[2.27273E-1,4.5455E-2,4.4E-1,1E0,1E0,1E0,5.2E-1,-9.15059E-2,7.5E-1,1.25E-1,1.36364E-1,3.47826E-1,3.52941E-1,1E0,5E0,-7.170261E-2,4.0328216E-2,8E-2,1.66667E-1,8E-2,9E0,2.85714E-1,5E0,2.77778E-1,6E0,5E0,9.361145E-2,1E0,6.31579E-1,3.6E0,4.9E0,6E0,9E0,6.6667E-2,4.4E0,4.5E0,1.7E1,2E0,3E0,1.7E0,4.375E-1,2.66667E-1,9E0,4.5E0,9.632766E-2,3E0,5E0,7.6E-1,1.0209019E-1,7E0,1.0560559E-1,-5.115857E-2,-6.745638E-2,-5.4328375E-2,-3.803023E-2,2.364425E-3,-4.2094927E-2,-3.0205943E-2,-1.5987959E-2,4.4040526E-3,-1.4490101E-2,2.0643637E-2,4.5929677E-3,2.8109448E-2,3.875028E-2,2.0172749E-2,7.313262E-2,-1.7428976E-2,-1.6296378E-3,4.3556765E-3,3.2060266E-2,7.9423204E-2,2.9670274E-2,7.372225E-2,1.1967318E-2,5.3861305E-2,3.6157697E-2,6.1715964E-2,8.223605E-2,8.80677E-2,7.026885E-2,3.154214E-2,5.3370833E-2,3.9112583E-2,7.967855E-2,7.478566E-2,9.6215054E-2,9.236153E-2,1.0397637E-1],"split_indices":[2,2,2,4,4,4,2,0,8,2,2,2,2,4,1,0,0,2,2,2,3,2,1,2,1,1,0,4,2,11,11,3,3,2,11,11,3,1,1,11,2,2,3,11,0,1,3,2,0,1,0,0,0,0,0,0,0,0,0,0,0,0,0,0,0,0,0,0,0,0,0,0,0,0,0,0,0,0,0,0,0,0,0,0,0,0,0,0,0],"split_type":[0,0,0,0,0,0,0,0,0,0,0,0,0,0,0,0,0,0,0,0,0,0,0,0,0,0,0,0,0,0,0,0,0,0,0,0,0,0,0,0,0,0,0,0,0,0,0,0,0,0,0,0,0,0,0,0,0,0,0,0,0,0,0,0,0,0,0,0,0,0,0,0,0,0,0,0,0,0,0,0,0,0,0,0,0,0,0,0,0],"sum_hessian":[8.971328E3,5.164476E3,3.8068516E3,2.5558164E3,2.60866E3,1.4906108E3,2.3162407E3,2.5525977E3,3.218721E0,1.7053185E3,9.033414E2,8.1819775E2,6.724131E2,4.1434772E2,1.9018931E3,1.9394721E0,1.2792487E0,7.678369E2,9.3748157E2,4.6055164E2,4.4278973E2,5.7508246E2,2.4311533E2,4.4160547E2,2.3080762E2,1.8490797E2,2.2943974E2,3.457875E2,1.5561056E3,2.6186536E2,5.0597156E2,4.2364383E2,5.138377E2,1.18930916E2,3.4162073E2,2.9740598E2,1.4538374E2,2.458567E2,3.2922574E2,1.881767E2,5.4938637E1,1.904045E2,2.5120099E2,1.9477646E2,3.6031166E1,1.2386928E2,6.1038696E1,1.5532135E2,1.9046616E2,2.894199E2,1.2666857E3,1.9027182E1,2.4283818E2,4.4551227E2,6.0459274E1,1.0442799E1,4.1320105E2,3.6789774E2,1.4593996E2,4.1434475E1,7.749644E1,9.0558876E1,2.5106184E2,1.0982255E2,1.8758342E2,1.4051688E2,4.8668666E0,6.0206898E1,1.8564981E2,1.7661731E2,1.5260843E2,4.9859447E0,1.8319075E2,5.2550198E1,2.3884387E0,1.4999704E2,4.040746E1,2.1100856E2,4.0192417E1,6.864677E1,1.26129684E2,3.5742905E1,8.812637E1,7.4778433E0,5.3560852E1,1.073555E2,4.796585E1,1.5739934E2,1.3202055E2],"tree_param":{"num_deleted":"0","num_feature":"13","num_nodes":"89","size_leaf_vector":"1"}},{"base_weights":[-1.0044282E-2,-7.0507413E-1,8.558088E-1,-9.052328E-2,-2.841748E-1,4.1475892E-1,1.1813885E0,-5.373359E-1,1.9774652E-1,1.4102966E-1,7.600311E-1,9.150937E-1,1.2409525E0,-6.6024643E-1,-3.7014246E-1,3.681584E-2,3.2429042E-1,-6.345729E-2,3.1964955E-1,5.6516844E-1,8.6588365E-1,6.644695E-1,1.1202128E0,1.1552011E0,1.0242788E-1,-7.5597113E-1,-5.9952116E-1,-3.4327075E-1,-5.9194416E-1,1.8309285E-1,-4.4596206E-2,2.3231885E-1,3.7398025E-1,-8.273524E-2,6.003621E-1,2.297662E-1,6.297021E-1,7.042872E-1,4.9504519E-1,8.210771E-1,8.789325E-2,2.5920305E-1,7.610552E-1,9.474574E-2,9.9842817E-1,1.0524193E0,1.226673E0,-6.0803108E-2,-2.3850385E-2,-4.960696E-2,-2.8550936E-2,-2.8377501E-2,2.2000834E-2,-6.443277E-2,-3.9756946E-2,-2.268307E-3,2.2703672E-2,-4.3185926E-3,7.6126516E-2,1.5661066E-2,5.9824623E-2,3.0896029E-2,4.0847284E-4,-1.129119E-2,4.5068124E-3,6.714349E-3,1.07794374E-1,8.992422E-3,2.4526319E-2,3.1673845E-2,7.4636415E-2,6.1301157E-2,3.301507E-2,3.627373E-2,7.0663586E-2,2.1266105E-2,6.715696E-2,1.3527429E-2,8.266023E-2,5.4346003E-2,8.16443E-2,5.4064922E-2,8.315042E-2,7.086219E-2,9.3834996E-2,9.833131E-2,3.2947276E-2],"categories":[],"categories_nodes":[],"categories_segments":[],"categories_sizes":[],"default_left":[0,0,0,0,0,0,0,0,0,0,0,0,0,0,0,0,0,0,0,0,0,0,0,0,0,0,0,0,0,0,0,0,0,0,0,0,0,0,0,0,0,0,0,0,0,0,0,0,0,0,0,0,0,0,0,0,0,0,0,0,0,0,0,0,0,0,0,0,0,0,0,0,0,0,0,0,0,0,0,0,0,0,0,0,0,0,0],"id":13,"left_children":[1,3,5,-1,7,9,11,13,15,17,19,21,23,25,27,29,31,33,35,37,39,41,43,45,-1,47,49,51,53,55,57,59,61,63,65,67,69,71,73,75,-1,77,79,-1,81,83,85,-1,-1,-1,-1,-1,-1,-1,-1,-1,-1,-1,-1,-1,-1,-1,-1,-1,-1,-1,-1,-1,-1,-1,-1,-1,-1,-1,-1,-1,-1,-1,-1,-1,-1,-1,-1,-1,-1,-1,-1],"loss_changes":[5.206948E3,8.6121216E2,5.52751E2,0E0,2.9497992E2,1.5467917E2,3.4013428E1,3.232318E1,1.6954277E1,3.3431984E1,1.444455E1,2.0274689E1,4.6291504E0,4.848633E0,3.8123322E0,4.3888845E0,2.0439415E0,5.518228E0,1.3466961E1,2.1656342E0,3.9716797E0,7.1020966E0,5.616455E-1,2.965454E0,0E0,4.2559814E-1,2.587555E0,4.367775E0,1.047863E0,2.812944E0,2.2686284E0,2.985218E0,1.355156E0,3.3880503E0,4.586435E0,3.393221E0,7.371975E0,1.2019997E0,2.423088E0,3.8173523E0,0E0,2.4343512E0,2.4896088E0,0E0,3.995819E-1,3.8753052E0,1.6897583E-1,0E0,0E0,0E0,0E0,0E0,0E0,0E0,0E0,0E0,0E0,0E0,0E0,0E0,0E0,0E0,0E0,0E0,0E0,0E0,0E0,0E0,0E0,0E0,0E0,0E0,0E0,0E0,0E0,0E0,0E0,0E0,0E0,0E0,0E0,0E0,0E0,0E0,0E0,0E0,0E0],"parents":[2147483647,0,0,1,1,2,2,4,4,5,5,6,6,7,7,8,8,9,9,10,10,11,11,12,12,13,13,14,14,15,15,16,16,17,17,18,18,19,19,20,20,21,21,22,22,23,23,25,25,26,26,27,27,28,28,29,29,30,30,31,31,32,32,33,33,34,34,35,35,36,36,37,37,38,38,39,39,41,41,42,42,44,44,45,45,46,46],"right_children":[2,4,6,-1,8,10,12,14,16,18,20,22,24,26,28,30,32,34,36,38,40,42,44,46,-1,48,50,52,54,56,58,60,62,64,66,68,70,72,74,76,-1,78,80,-1,82,84,86,-1,-1,-1,-1,-1,-1,-1,-1,-1,-1,-1,-1,-1,-1,-1,-1,-1,-1,-1,-1,-1,-1,-1,-1,-1,-1,-1,-1,-1,-1,-1,-1,-1,-1,-1,-1,-1,-1,-1,-1],"split_conditions":[2.10526E-1,3.5714E-2,4.375E-1,-9.052328E-2,1E0,1E0,5.2E-1,1.30435E-1,1.25E-1,2.94118E-1,2.77778E-1,1E0,6.81818E-1,9.0909E-2,4.9E0,4.5E0,4.5E0,1.9E1,1.2E1,4.5E1,1.4E1,5E0,7.5E-1,1E0,1.0242788E-1,2.3E1,5E0,2E1,3.5E1,8.3333E-2,2.3E1,1.6E1,1.5E1,2.69231E-1,2.6087E-1,7E0,3.68421E-1,4.8E0,5E0,5E0,8.789325E-2,5E0,1.2E1,9.474574E-2,5E0,9E0,9E2,-6.0803108E-2,-2.3850385E-2,-4.960696E-2,-2.8550936E-2,-2.8377501E-2,2.2000834E-2,-6.443277E-2,-3.9756946E-2,-2.268307E-3,2.2703672E-2,-4.3185926E-3,7.6126516E-2,1.5661066E-2,5.9824623E-2,3.0896029E-2,4.0847284E-4,-1.129119E-2,4.5068124E-3,6.714349E-3,1.07794374E-1,8.992422E-3,2.4526319E-2,3.1673845E-2,7.4636415E-2,6.1301157E-2,3.301507E-2,3.627373E-2,7.0663586E-2,2.1266105E-2,6.715696E-2,1.3527429E-2,8.266023E-2,5.4346003E-2,8.16443E-2,5.4064922E-2,8.315042E-2,7.086219E-2,9.3834996E-2,9.833131E-2,3.2947276E-2],"split_indices":[2,2,2,0,4,4,2,2,2,2,2,4,2,2,11,11,11,0,0,10,0,0,8,4,0,3,11,0,10,2,3,0,3,2,2,0,2,11,11,10,0,11,0,0,0,0,10,0,0,0,0,0,0,0,0,0,0,0,0,0,0,0,0,0,0,0,0,0,0,0,0,0,0,0,0,0,0,0,0,0,0,0,0,0,0,0,0],"split_type":[0,0,0,0,0,0,0,0,0,0,0,0,0,0,0,0,0,0,0,0,0,0,0,0,0,0,0,0,0,0,0,0,0,0,0,0,0,0,0,0,0,0,0,0,0,0,0,0,0,0,0,0,0,0,0,0,0,0,0,0,0,0,0,0,0,0,0,0,0,0,0,0,0,0,0,0,0,0,0,0,0,0,0,0,0,0,0],"sum_hessian":[8.650377E3,4.798641E3,3.8517363E3,2.3827173E3,2.4159238E3,1.6367585E3,2.2149778E3,1.5838086E3,8.3211523E2,9.137515E2,7.2300696E2,4.0786865E2,1.8071091E3,9.110846E2,6.7272394E2,3.6685843E2,4.6525684E2,4.2632852E2,4.87423E2,2.5673172E2,4.6627527E2,1.8547986E2,2.2238878E2,5.7841736E2,1.2286918E3,3.4918924E2,5.618954E2,6.023015E2,7.042242E1,1.307266E2,2.3613182E2,1.6518645E2,3.0007037E2,4.151476E2,1.1180921E1,3.7922717E2,1.0819583E2,8.300769E1,1.7372403E2,3.9480865E2,7.146662E1,3.640611E1,1.4907376E2,1.3997784E2,8.241094E1,2.4369371E2,3.3472363E2,3.4545993E2,3.7293298E0,5.16556E2,4.5339336E1,5.917706E2,1.0530881E1,1.9382393E1,5.1040028E1,4.2405666E1,8.832093E1,2.3486469E2,1.2671356E0,1.5553645E2,9.649989E0,2.9040292E2,9.667468E0,2.9235428E2,1.22793335E2,7.268617E0,3.9123034E0,1.509922E2,2.2823497E2,6.239831E1,4.5797523E1,6.711505E1,1.5892642E1,1.5886072E2,1.4863316E1,1.3149045E1,3.816596E2,3.3701263E1,2.704844E0,1.1611933E2,3.2954422E1,1.1254165E1,7.115678E1,1.0578009E2,1.3791364E2,3.3320584E2,1.5178076E0],"tree_param":{"num_deleted":"0","num_feature":"13","num_nodes":"87","size_leaf_vector":"1"}},{"base_weights":[-9.882575E-3,-6.573136E-1,8.46406E-1,-1.1158231E0,-2.434097E-1,4.221634E-1,1.1458133E0,-8.951931E-2,-2.9688045E-1,-4.847682E-1,1.8811616E-1,1.6991577E-1,7.399368E-1,9.635989E-1,1.2333676E0,-6.192304E-2,-1.5331133E-2,-6.793034E-1,-3.817217E-1,-1.4708863E-2,2.780681E-1,5.1549863E-2,4.5802337E-1,6.399292E-1,9.3686265E-1,7.7576363E-1,1.1176018E0,1.1502302E0,9.977374E-2,4.1005236E-1,-3.0983078E-1,-7.2903097E-1,-6.0960454E-1,-4.598841E-1,-2.9517618E-1,1.9447607E-1,-7.43645E-2,2.2115055E-1,4.135664E-1,-6.019589E-2,1.857543E-1,3.670959E-1,7.634432E-1,8.5046865E-2,6.6024464E-1,5.120742E-1,9.8404616E-1,5.7758445E-1,1.0183947E0,8.956114E-2,2.6262168E-2,1.019657E0,9.93957E-2,-9.672324E-4,5.5086877E-2,1.1339224E-2,-6.6213846E-2,-4.4487275E-2,-5.926359E-2,-5.563793E-2,-3.8657118E-2,-2.9227084E-2,-4.0022008E-2,-2.8889483E-2,-1.3631069E-2,3.4329154E-2,5.148549E-4,-4.7243373E-3,-6.8608485E-2,2.212166E-2,6.8303905E-3,-8.823633E-3,3.5184596E-2,-1.0952383E-2,6.174127E-3,1.2631872E-2,5.6375407E-2,3.1481043E-2,-2.96312E-2,7.903546E-2,4.605895E-2,4.514295E-2,-3.4619577E-2,7.66636E-2,5.025269E-2,1.25756E-3,6.3299276E-2,8.6774446E-2,7.18824E-2,2.0587571E-2,5.278174E-2,7.172792E-2,9.565004E-2,3.4499753E-2,8.319448E-2],"categories":[],"categories_nodes":[],"categories_segments":[],"categories_sizes":[],"default_left":[0,0,0,0,0,0,0,0,0,0,0,0,0,0,0,0,0,0,0,0,0,0,0,0,0,0,0,0,0,0,0,0,0,0,0,0,0,0,0,0,0,0,0,0,0,0,0,0,0,0,0,0,0,0,0,0,0,0,0,0,0,0,0,0,0,0,0,0,0,0,0,0,0,0,0,0,0,0,0,0,0,0,0,0,0,0,0,0,0,0,0,0,0,0,0],"id":14,"left_children":[1,3,5,7,9,11,13,-1,15,17,19,21,23,25,27,-1,29,31,33,35,37,39,41,43,45,47,49,51,-1,53,55,57,59,61,63,65,67,69,71,73,75,77,79,81,83,85,87,89,91,-1,-1,93,-1,-1,-1,-1,-1,-1,-1,-1,-1,-1,-1,-1,-1,-1,-1,-1,-1,-1,-1,-1,-1,-1,-1,-1,-1,-1,-1,-1,-1,-1,-1,-1,-1,-1,-1,-1,-1,-1,-1,-1,-1,-1,-1],"loss_changes":[4.596468E3,8.9573413E2,4.5295068E2,5.479004E0,2.586637E2,1.1839154E2,3.2189697E1,0E0,1.3305452E0,3.1662476E1,1.6264006E1,2.8129635E1,1.2280334E1,1.8907654E1,1.8310547E-1,0E0,1.0421219E0,1.4623413E0,6.921585E0,3.4432893E0,4.6705017E0,8.803493E0,6.3924904E0,4.868698E0,3.8677063E0,1.437764E1,1.9613647E-1,1.3049011E0,0E0,4.1028994E-1,1.2598445E0,2.3086548E-1,2.2163162E0,1.9037857E0,4.0354195E0,2.6995559E0,2.5217943E0,3.2612972E0,2.5434933E0,3.3896143E0,3.7428093E0,3.7905083E0,1.7150574E0,4.358019E0,3.4270935E0,3.2978764E0,7.054596E-1,4.399933E0,1.9201965E0,0E0,0E0,6.7271423E-1,0E0,0E0,0E0,0E0,0E0,0E0,0E0,0E0,0E0,0E0,0E0,0E0,0E0,0E0,0E0,0E0,0E0,0E0,0E0,0E0,0E0,0E0,0E0,0E0,0E0,0E0,0E0,0E0,0E0,0E0,0E0,0E0,0E0,0E0,0E0,0E0,0E0,0E0,0E0,0E0,0E0,0E0,0E0],"parents":[2147483647,0,0,1,1,2,2,3,3,4,4,5,5,6,6,8,8,9,9,10,10,11,11,12,12,13,13,14,14,16,16,17,17,18,18,19,19,20,20,21,21,22,22,23,23,24,24,25,25,26,26,27,27,29,29,30,30,31,31,32,32,33,33,34,34,35,35,36,36,37,37,38,38,39,39,40,40,41,41,42,42,43,43,44,44,45,45,46,46,47,47,48,48,51,51],"right_children":[2,4,6,8,10,12,14,-1,16,18,20,22,24,26,28,-1,30,32,34,36,38,40,42,44,46,48,50,52,-1,54,56,58,60,62,64,66,68,70,72,74,76,78,80,82,84,86,88,90,92,-1,-1,94,-1,-1,-1,-1,-1,-1,-1,-1,-1,-1,-1,-1,-1,-1,-1,-1,-1,-1,-1,-1,-1,-1,-1,-1,-1,-1,-1,-1,-1,-1,-1,-1,-1,-1,-1,-1,-1,-1,-1,-1,-1,-1,-1],"split_conditions":[2.27273E-1,5.2632E-2,4.4E-1,1E0,1E0,1E0,6.11111E-1,-8.951931E-2,9.1E1,1.11111E-1,1.07143E-1,3.57143E-1,3.52941E-1,1E0,5E0,-6.192304E-2,2.2E1,9.0909E-2,1.66667E-1,4.3E0,1.92308E-1,9E0,1.2E1,5E0,1.7E1,5E0,9E2,1E0,9.977374E-2,4.6E0,4.9E0,2.8E1,4.7E0,3.8E1,8E1,5.5E1,1.05263E-1,1.2E1,1E1,4.7E0,1.9E1,5.25E2,6.5E1,9E0,2E1,6E0,5.8E1,5E0,7E0,8.956114E-2,2.6262168E-2,5E0,9.93957E-2,-9.672324E-4,5.5086877E-2,1.1339224E-2,-6.6213846E-2,-4.4487275E-2,-5.926359E-2,-5.563793E-2,-3.8657118E-2,-2.9227084E-2,-4.0022008E-2,-2.8889483E-2,-1.3631069E-2,3.4329154E-2,5.148549E-4,-4.7243373E-3,-6.8608485E-2,2.212166E-2,6.8303905E-3,-8.823633E-3,3.5184596E-2,-1.0952383E-2,6.174127E-3,1.2631872E-2,5.6375407E-2,3.1481043E-2,-2.96312E-2,7.903546E-2,4.605895E-2,4.514295E-2,-3.4619577E-2,7.66636E-2,5.025269E-2,1.25756E-3,6.3299276E-2,8.6774446E-2,7.18824E-2,2.0587571E-2,5.278174E-2,7.172792E-2,9.565004E-2,3.4499753E-2,8.319448E-2],"split_indices":[2,2,2,4,4,4,2,0,10,2,2,2,2,4,1,0,0,2,2,11,2,0,0,10,10,1,10,4,0,11,11,10,11,10,10,10,2,0,10,11,0,10,10,0,10,0,10,0,1,0,0,10,0,0,0,0,0,0,0,0,0,0,0,0,0,0,0,0,0,0,0,0,0,0,0,0,0,0,0,0,0,0,0,0,0,0,0,0,0,0,0,0,0,0,0],"split_type":[0,0,0,0,0,0,0,0,0,0,0,0,0,0,0,0,0,0,0,0,0,0,0,0,0,0,0,0,0,0,0,0,0,0,0,0,0,0,0,0,0,0,0,0,0,0,0,0,0,0,0,0,0,0,0,0,0,0,0,0,0,0,0,0,0,0,0,0,0,0,0,0,0,0,0,0,0,0,0,0,0,0,0,0,0,0,0,0,0,0,0,0,0,0,0],"sum_hessian":[8.289065E3,4.720316E3,3.56875E3,2.238681E3,2.481635E3,1.4775535E3,2.0911965E3,2.2296885E3,8.992394E0,1.5914122E3,8.902228E2,8.245572E2,6.5299634E2,6.82601E2,1.4085956E3,2.6878812E0,6.3045135E0,5.4913727E2,1.0422749E3,2.7376645E2,6.1645636E2,5.852801E2,2.392771E2,4.3588443E2,2.1711192E2,3.102412E2,3.723598E2,2.1258606E2,1.1960095E3,2.4186208E0,3.8858929E0,3.1496304E2,2.3417422E2,5.453951E2,4.968798E2,6.02472E1,2.1351924E2,4.359591E2,1.8049725E2,3.1966306E2,2.65617E2,1.8608046E2,5.319664E1,1.5578223E1,4.203062E2,2.2889847E1,1.9422208E2,1.7262386E2,1.3761736E2,3.710424E2,1.3174173E0,9.298355E1,1.1960251E2,1.3417184E0,1.0769023E0,2.4637392E0,1.4221538E0,2.3134577E1,2.9182846E2,1.367583E2,9.7415924E1,1.662618E2,3.7913333E2,3.238513E2,1.7302852E2,2.623229E1,3.4014908E1,2.104803E2,3.0389314E0,3.0893292E2,1.2702619E2,8.457286E0,1.7203996E2,2.0512468E2,1.14538376E2,2.5332324E2,1.229377E1,1.8009573E2,5.9847174E0,2.2282791E1,3.0913849E1,8.043654E0,7.534569E0,3.804408E1,3.8226215E2,8.619968E0,1.4269877E1,8.385668E1,1.10365395E2,3.609851E1,1.3652534E2,8.5155876E1,5.2461475E1,3.838891E0,8.914466E1],"tree_param":{"num_deleted":"0","num_feature":"13","num_nodes":"95","size_leaf_vector":"1"}},{"base_weights":[-9.020339E-3,-6.3091576E-1,8.1016856E-1,-1.1034346E0,-2.2464387E-1,3.9502928E-1,1.1098931E0,-1.1075798E0,-2.1396518E-1,-4.625492E-1,1.9189352E-1,1.7335872E-1,6.8284416E-1,8.142981E-1,1.178955E0,-8.864264E-2,-2.2861013E-2,-8.35095E-1,1.5179227E-1,-6.485535E-1,-3.657342E-1,8.631622E-2,3.557938E-1,-8.1857644E-2,2.832989E-1,5.330996E-1,8.0337834E-1,5.5700386E-1,1.0399517E0,1.0347486E0,1.2085875E0,-7.837956E-2,-1.8166797E-2,7.389625E-2,-1.44174E-1,-3.3258834E-1,-6.720324E-1,-4.4447836E-1,-2.790298E-1,1.8178183E-1,-1.0562264E-2,3.355666E-1,1.0934058E0,-1.864606E-1,5.472297E-2,1.944314E-1,5.5286664E-1,5.125922E-1,8.762685E-1,2.7140003E-1,8.192332E-1,2.046997E-1,6.4619297E-1,9.6916157E-1,1.1314673E0,9.403824E-1,9.3586154E-2,1.1674491E0,9.8814905E-2,2.793668E-2,-5.540664E-2,-5.937985E-2,-1.2172062E-2,-6.1162505E-2,-5.0328076E-2,-3.9729465E-2,-2.8366856E-2,-2.5557395E-2,-9.744516E-3,1.7856687E-2,-5.754643E-3,-4.904532E-3,2.2424284E-2,3.21619E-2,1.962118E-2,9.7199015E-2,1.5047075E-2,1.6119607E-2,-1.8805956E-2,1.6904319E-2,-2.5200257E-2,1.1349478E-2,3.0482259E-2,3.2803826E-2,6.89001E-2,7.040388E-2,3.9350417E-2,9.030598E-2,2.8218312E-2,4.3885663E-2,-5.785938E-2,6.303404E-2,8.559251E-2,2.277389E-2,-4.8692763E-2,4.6477657E-2,6.9007374E-2,6.4181544E-2,8.162609E-2,2.7469508E-2,9.12756E-2,6.1160427E-2,8.700511E-2,8.751142E-2,9.852852E-2],"categories":[],"categories_nodes":[],"categories_segments":[],"categories_sizes":[],"default_left":[0,0,0,0,0,0,0,0,0,0,0,0,0,0,0,0,0,0,0,0,0,0,0,0,0,0,0,0,0,0,0,0,0,0,0,0,0,0,0,0,0,0,0,0,0,0,0,0,0,0,0,0,0,0,0,0,0,0,0,0,0,0,0,0,0,0,0,0,0,0,0,0,0,0,0,0,0,0,0,0,0,0,0,0,0,0,0,0,0,0,0,0,0,0,0,0,0,0,0,0,0,0,0,0,0],"id":15,"left_children":[1,3,5,7,9,11,13,15,17,19,21,23,25,27,29,-1,-1,31,33,35,37,39,41,43,45,47,49,51,53,55,57,-1,-1,-1,59,61,63,65,67,69,71,73,75,77,79,81,83,85,87,89,91,93,95,97,99,101,-1,103,-1,-1,-1,-1,-1,-1,-1,-1,-1,-1,-1,-1,-1,-1,-1,-1,-1,-1,-1,-1,-1,-1,-1,-1,-1,-1,-1,-1,-1,-1,-1,-1,-1,-1,-1,-1,-1,-1,-1,-1,-1,-1,-1,-1,-1,-1,-1],"loss_changes":[4.0731453E3,8.722378E2,4.2887354E2,7.508789E0,2.4237975E2,9.227548E1,3.9932617E1,4.621582E-1,2.6223025E0,2.779187E1,1.5361721E1,2.3015324E1,1.0938171E1,2.1634369E1,5.678467E0,0E0,0E0,1.4909124E-1,1.9059718E0,3.719635E0,6.8806458E0,5.0177946E0,4.8278885E0,3.5460074E0,1.3617889E1,1.5481644E0,2.7037964E0,5.5525665E0,2.1646118E-1,2.5118103E0,2.319336E-2,0E0,0E0,0E0,1.9935946E0,2.750988E0,1.4798737E0,2.3360062E0,3.0826378E0,2.8877306E0,4.0041585E0,1.9437904E0,7.4563694E-1,2.694899E0,6.3253107E0,4.187319E0,5.8793526E0,1.6236954E0,1.5315704E0,3.5770214E0,1.7969971E0,2.6459057E0,1.5299873E0,2.1679688E-1,2.2392273E-1,3.618744E0,0E0,1.220459E0,0E0,0E0,0E0,0E0,0E0,0E0,0E0,0E0,0E0,0E0,0E0,0E0,0E0,0E0,0E0,0E0,0E0,0E0,0E0,0E0,0E0,0E0,0E0,0E0,0E0,0E0,0E0,0E0,0E0,0E0,0E0,0E0,0E0,0E0,0E0,0E0,0E0,0E0,0E0,0E0,0E0,0E0,0E0,0E0,0E0,0E0,0E0],"parents":[2147483647,0,0,1,1,2,2,3,3,4,4,5,5,6,6,7,7,8,8,9,9,10,10,11,11,12,12,13,13,14,14,17,17,18,18,19,19,20,20,21,21,22,22,23,23,24,24,25,25,26,26,27,27,28,28,29,29,30,30,34,34,35,35,36,36,37,37,38,38,39,39,40,40,41,41,42,42,43,43,44,44,45,45,46,46,47,47,48,48,49,49,50,50,51,51,52,52,53,53,54,54,55,55,57,57],"right_children":[2,4,6,8,10,12,14,16,18,20,22,24,26,28,30,-1,-1,32,34,36,38,40,42,44,46,48,50,52,54,56,58,-1,-1,-1,60,62,64,66,68,70,72,74,76,78,80,82,84,86,88,90,92,94,96,98,100,102,-1,104,-1,-1,-1,-1,-1,-1,-1,-1,-1,-1,-1,-1,-1,-1,-1,-1,-1,-1,-1,-1,-1,-1,-1,-1,-1,-1,-1,-1,-1,-1,-1,-1,-1,-1,-1,-1,-1,-1,-1,-1,-1,-1,-1,-1,-1,-1,-1],"split_conditions":[2.27273E-1,5.2632E-2,4.375E-1,1E0,1E0,1E0,5.2E-1,2.7E1,8.5E1,1.11111E-1,1.5E-1,2.85714E-1,3.04348E-1,1E0,6.11111E-1,-8.864264E-2,-2.2861013E-2,2E1,1E2,2.5E1,1.66667E-1,1.1E1,5.85E2,9E0,1.1E1,4.9E2,5E0,5E0,6.5E1,1.1E1,1E0,-7.837956E-2,-1.8166797E-2,7.389625E-2,2.1E1,4.4E0,7.6923E-2,7.5E-1,1.3E2,1.45E2,1.95E2,6.6E1,1.8E1,1.5E1,1E2,1E2,3.68421E-1,3.2E0,8E0,3.91304E-1,1.5E1,2.55E2,1.2E1,4.4E0,4.4E-1,1E0,9.3586154E-2,8.07692E-1,9.8814905E-2,2.793668E-2,-5.540664E-2,-5.937985E-2,-1.2172062E-2,-6.1162505E-2,-5.0328076E-2,-3.9729465E-2,-2.8366856E-2,-2.5557395E-2,-9.744516E-3,1.7856687E-2,-5.754643E-3,-4.904532E-3,2.2424284E-2,3.21619E-2,1.962118E-2,9.7199015E-2,1.5047075E-2,1.6119607E-2,-1.8805956E-2,1.6904319E-2,-2.5200257E-2,1.1349478E-2,3.0482259E-2,3.2803826E-2,6.89001E-2,7.040388E-2,3.9350417E-2,9.030598E-2,2.8218312E-2,4.3885663E-2,-5.785938E-2,6.303404E-2,8.559251E-2,2.277389E-2,-4.8692763E-2,4.6477657E-2,6.9007374E-2,6.4181544E-2,8.162609E-2,2.7469508E-2,9.12756E-2,6.1160427E-2,8.700511E-2,8.751142E-2,9.852852E-2],"split_indices":[2,2,2,4,4,4,2,3,10,2,2,2,2,4,2,0,0,3,10,10,2,0,10,0,0,10,10,0,10,0,4,0,0,0,3,11,2,8,10,10,10,10,0,10,10,10,2,11,3,2,0,10,0,11,2,4,0,2,0,0,0,0,0,0,0,0,0,0,0,0,0,0,0,0,0,0,0,0,0,0,0,0,0,0,0,0,0,0,0,0,0,0,0,0,0,0,0,0,0,0,0,0,0,0,0],"split_type":[0,0,0,0,0,0,0,0,0,0,0,0,0,0,0,0,0,0,0,0,0,0,0,0,0,0,0,0,0,0,0,0,0,0,0,0,0,0,0,0,0,0,0,0,0,0,0,0,0,0,0,0,0,0,0,0,0,0,0,0,0,0,0,0,0,0,0,0,0,0,0,0,0,0,0,0,0,0,0,0,0,0,0,0,0,0,0,0,0,0,0,0,0,0,0,0,0,0,0,0,0,0,0,0,0],"sum_hessian":[7.99318E3,4.543879E3,3.4493013E3,2.099878E3,2.4440012E3,1.4471776E3,2.0021238E3,2.089893E3,9.984726E0,1.5554789E3,8.8852234E2,8.184345E2,6.287431E2,3.8160196E2,1.6205217E3,2.088393E3,1.5001655E0,3.2249382E0,6.759788E0,5.305226E2,1.0249563E3,5.41341E2,3.4718127E2,2.4648859E2,5.7194586E2,2.8281418E2,3.4592892E2,1.7992111E2,2.0168086E2,2.8235672E2,1.338165E3,2.1112604E0,1.1136779E0,1.2856652E0,5.474123E0,3.774457E1,4.9277798E2,5.3497253E2,4.8998383E2,2.7221735E2,2.691237E2,3.393309E2,7.8503704E0,1.3937799E2,1.07110596E2,4.314368E2,1.4050908E2,2.6921964E2,1.3594561E1,1.0535859E1,3.3539307E2,3.701276E1,1.4290834E2,1.2025234E2,8.142853E1,1.709161E2,1.1144063E2,5.430934E2,7.9507166E2,3.0728402E0,2.4012825E0,1.0589318E1,2.7155254E1,1.508825E2,3.4189548E2,3.357213E2,1.9925124E2,3.889217E2,1.0106212E2,2.3411165E2,3.8105698E1,2.2981879E2,3.93049E1,1.9348483E2,1.4584607E2,6.6193514E0,1.231019E0,1.5170142E1,1.24207855E2,7.554526E1,3.1565334E1,3.379883E2,9.344849E1,9.762618E1,4.28829E1,1.215123E1,2.570684E2,8.390723E0,5.2038374E0,8.590479E0,1.9453804E0,3.0183844E2,3.3554623E1,3.4291077E1,2.7216833E0,1.12642784E2,3.0265564E1,3.212965E1,8.812269E1,1.4100225E0,8.001851E1,8.068929E1,9.0226814E1,2.6142276E2,2.8167062E2],"tree_param":{"num_deleted":"0","num_feature":"13","num_nodes":"105","size_leaf_vector":"1"}},{"base_weights":[-5.4038526E-3,-6.606998E-1,6.4023143E-1,-8.802204E-2,-2.1456642E-1,2.2424386E-1,1.0145426E0,-4.3599102E-1,1.9152234E-1,7.509106E-3,5.169707E-1,1.1452025E0,7.612108E-1,-2.3118573E-1,-5.635485E-1,3.608634E-1,7.850786E-2,2.783661E-1,-1.6246317E-1,7.986487E-1,2.79154E-1,9.730861E-1,1.1777698E0,5.633816E-1,1.0670812E0,1.3515973E-1,-2.6222956E-1,-5.027945E-1,-7.0396316E-1,7.3556006E-1,3.0977592E-1,2.7158397E-1,2.7632743E-2,6.1121476E-1,1.8541227E-1,-2.889576E-1,6.6155665E-2,1.0822716E0,7.02869E-1,3.5213715E-1,7.0601426E-2,1.1172023E0,8.138288E-1,1.1193919E0,9.670944E-2,3.6389837E-1,7.784918E-1,1.0740435E0,-2.3742378E-2,3.060759E-2,-1.4383793E-2,2.22877E-2,-2.25338E-2,-4.1911345E-2,-1.9365616E-2,-2.6620839E-2,-5.809115E-2,-8.278922E-2,6.7270145E-2,2.2241678E-2,6.311958E-2,1.624154E-2,6.088228E-2,-3.8358763E-2,3.195033E-3,8.97988E-2,4.3049302E-2,7.6198876E-3,2.7260214E-2,-1.6179258E-2,-3.8590834E-2,1.0927073E-2,-2.8842054E-2,9.446567E-2,7.6207735E-2,4.7353238E-2,7.0620395E-2,-2.1575693E-2,3.0331276E-2,-7.520208E-3,2.117913E-2,8.998586E-2,1.91778E-2,-1.7112782E-2,6.822357E-2,9.607694E-2,8.252433E-2,3.5516802E-2,7.292082E-3,6.1017912E-2,1.1760671E-1,7.810676E-2,9.491012E-2],"categories":[],"categories_nodes":[],"categories_segments":[],"categories_sizes":[],"default_left":[0,0,0,0,0,0,0,0,0,0,0,0,0,0,0,0,0,0,0,0,0,0,0,0,0,0,0,0,0,0,0,0,0,0,0,0,0,0,0,0,0,0,0,0,0,0,0,0,0,0,0,0,0,0,0,0,0,0,0,0,0,0,0,0,0,0,0,0,0,0,0,0,0,0,0,0,0,0,0,0,0,0,0,0,0,0,0,0,0,0,0,0,0],"id":16,"left_children":[1,3,5,-1,7,9,11,13,15,17,19,21,23,25,27,29,31,33,35,37,39,41,43,45,47,49,51,53,55,57,59,61,63,65,67,69,71,73,75,77,79,81,83,85,-1,87,89,91,-1,-1,-1,-1,-1,-1,-1,-1,-1,-1,-1,-1,-1,-1,-1,-1,-1,-1,-1,-1,-1,-1,-1,-1,-1,-1,-1,-1,-1,-1,-1,-1,-1,-1,-1,-1,-1,-1,-1,-1,-1,-1,-1,-1,-1],"loss_changes":[3.25629E3,7.488457E2,6.034364E2,0E0,1.7065433E2,1.1657451E2,6.666528E1,3.1947983E1,1.2795198E1,4.869865E1,5.214087E1,6.3884277E0,4.1589905E1,5.414219E0,6.094879E0,4.900673E0,3.952451E0,1.2505226E1,1.8815336E1,8.94574E0,6.4498177E0,4.131363E0,6.900635E-1,1.7976395E1,2.9084778E0,2.9995303E0,4.66675E0,2.794815E0,1.6171341E0,6.7282925E0,3.3947792E0,2.6630836E0,2.0171268E0,2.7071648E0,4.4529467E0,6.9242363E0,7.0314636E0,4.211426E-3,4.8656006E0,5.3893356E0,3.5887237E0,4.8338318E-1,4.5078964E0,1.6607056E0,0E0,4.8216724E0,1.1018677E0,1.8223572E0,0E0,0E0,0E0,0E0,0E0,0E0,0E0,0E0,0E0,0E0,0E0,0E0,0E0,0E0,0E0,0E0,0E0,0E0,0E0,0E0,0E0,0E0,0E0,0E0,0E0,0E0,0E0,0E0,0E0,0E0,0E0,0E0,0E0,0E0,0E0,0E0,0E0,0E0,0E0,0E0,0E0,0E0,0E0,0E0,0E0],"parents":[2147483647,0,0,1,1,2,2,4,4,5,5,6,6,7,7,8,8,9,9,10,10,11,11,12,12,13,13,14,14,15,15,16,16,17,17,18,18,19,19,20,20,21,21,22,22,23,23,24,24,25,25,26,26,27,27,28,28,29,29,30,30,31,31,32,32,33,33,34,34,35,35,36,36,37,37,38,38,39,39,40,40,41,41,42,42,43,43,45,45,46,46,47,47],"right_children":[2,4,6,-1,8,10,12,14,16,18,20,22,24,26,28,30,32,34,36,38,40,42,44,